GenbitScore,BiasDetectionScore
0.32542240043462795,0.6185808777809143
0.32542240043462795,0.5334212779998779
0.32542240043462795,-0.5664993524551392
0.32542240043462795,0.9935237169265747
0.32542240043462795,0.9622833728790283
0.32542240043462795,0.56956946849823
0.32542240043462795,0.6254685521125793
0.32542240043462795,0.6207832098007202
0.32542240043462795,-0.6465468406677246
0.32542240043462795,0.5089964866638184
0.32542240043462795,-0.646036684513092
0.32542240043462795,0.9015069603919983
0.32542240043462795,0.5898065567016602
0.32542240043462795,0.9073218703269958
0.32542240043462795,0.6771034598350525
0.32542240043462795,0.983334481716156
0.32542240043462795,0.6775078177452087
0.32542240043462795,0.9592479467391968
0.32542240043462795,0.7943596839904785
0.32542240043462795,0.5287514328956604
0.31268337465719814,0.7076267004013062
0.31268337465719814,0.7447656393051147
0.31268337465719814,-0.8361444473266602
0.31268337465719814,-0.5228607058525085
0.31268337465719814,-0.5981810092926025
0.3126833746571983,-0.5653241276741028
0.3063742054639334,0.6994836330413818
0.3063742054639334,0.5498533844947815
0.3063742054639334,0.5498533844947815
0.3063742054639334,0.5407301783561707
0.3063742054639334,0.6665095686912537
0.3063742054639334,-0.6182292699813843
0.3063742054639334,0.976157009601593
0.3063742054639334,0.8621839284896851
0.3063742054639334,-0.6211529970169067
0.3063742054639334,-0.74118572473526
0.3063742054639334,0.9877933859825134
0.3063742054639334,0.625008225440979
0.3063742054639334,-0.5431364178657532
0.3063742054639334,0.9810057878494263
0.3063742054639334,0.7681625485420227
0.3063742054639334,0.9598745703697205
0.3063742054639334,0.9330925941467285
0.3063742054639334,-0.6366623044013977
0.3063742054639334,0.5986401438713074
0.3063742054639334,-0.5151699781417847
0.3063742054639334,-0.5733745098114014
0.3063742054639334,0.5448150038719177
0.3063742054639334,0.9871652126312256
0.3063742054639334,0.6254685521125793
0.31099315132022815,0.8469988703727722
0.31099315132022815,0.8155123591423035
0.31099315132022815,0.6521074175834656
0.31099315132022815,0.9818757176399231
0.31099315132022815,0.5934764742851257
0.310993151320228,-0.6008099913597107
0.31559086056885743,-0.5298900008201599
0.3201675275962692,0.8217249512672424
0.3201675275962692,-0.6256672143936157
0.3201675275962692,-0.8459051847457886
0.3201675275962692,-0.5668306946754456
0.3201675275962694,0.947468101978302
0.3201675275962694,0.7824990153312683
0.3201675275962694,0.6244804263114929
0.3201675275962694,-0.7382689118385315
0.3201675275962694,0.5005361437797546
0.3201675275962694,0.9267333745956421
0.3292584992975214,0.9778525829315186
0.3292584992975214,0.7460819482803345
0.3292584992975214,-0.6352740526199341
0.3292584992975214,0.9802706241607666
0.33377317965204784,0.9049946665763855
0.33377317965204784,-0.502674400806427
0.33377317965204784,0.5653992295265198
0.33377317965204784,0.9543362259864807
0.33377317965204784,-0.7382689118385315
0.33377317965204784,0.8532525300979614
0.33377317965204784,-0.8265573382377625
0.33377317965204784,0.7780413627624512
0.33826756923988716,0.9250901937484741
0.33826756923988716,-0.5418134331703186
0.33199795622629186,0.9840319752693176
0.33199795622629186,0.8698220252990723
0.33199795622629186,-0.5405300855636597
0.33199795622629186,0.5099865794181824
0.336472236621213,0.5315115451812744
0.336472236621213,-0.696839451789856
0.336472236621213,0.9553807377815247
0.336472236621213,0.9850221276283264
0.336472236621213,0.5404272675514221
0.336472236621213,0.5506594181060791
0.336472236621213,-0.6182949542999268
0.336472236621213,0.6254685521125793
0.3302416868705768,-0.5176067352294922
0.3302416868705768,0.6913089156150818
0.3302416868705768,0.7199418544769287
0.3302416868705768,0.5453141331672668
0.3302416868705768,-0.503444254398346
0.3302416868705768,0.6010515093803406
0.33469603721995705,0.8072422742843628
0.33469603721995705,0.9536356329917908
0.33469603721995705,0.8703196048736572
0.33469603721995705,0.514159083366394
0.33469603721995705,0.8327797055244446
0.33913063428782286,-0.6178812980651855
0.3145895253717052,-0.5825309157371521
0.3145895253717052,0.5620179772377014
0.3145895253717052,0.9852707386016846
0.31458952537170537,0.5392252206802368
0.31458952537170537,0.8061732053756714
0.31458952537170537,-0.614680290222168
0.31458952537170537,0.9889918565750122
0.31458952537170537,-0.5439572334289551
0.31458952537170537,0.9863339066505432
0.3145895253717052,-0.6457645297050476
0.3145895253717052,0.8280326128005981
0.3145895253717052,0.8821249604225159
0.3145895253717052,0.6899961829185486
0.3145895253717052,0.9235918521881104
0.3145895253717052,0.9827691912651062
0.3145895253717052,0.9462763071060181
0.3145895253717052,0.9439733624458313
0.3145895253717052,0.956978440284729
0.3145895253717052,-0.7382689118385315
0.3145895253717052,-0.5855944156646729
0.3145895253717052,0.9880935549736023
0.3145895253717052,0.9247219562530518
0.3145895253717052,-0.5001170039176941
0.3145895253717052,-0.5382139682769775
0.3145895253717052,-0.5456351041793823
0.3145895253717052,-0.512904703617096
0.3145895253717052,-0.5117827653884888
0.3145895253717052,-0.7866023778915405
0.3145895253717052,-0.539017379283905
0.3145895253717052,0.582040548324585
0.3145895253717052,0.9830297827720642
0.31900454358082186,0.9918227791786194
0.31900454358082186,-0.5148297548294067
0.31900454358082186,-0.6479367613792419
0.31900454358082186,0.9752706289291382
0.31900454358082186,-0.8598245978355408
0.32340015505386,0.9915539622306824
0.32777652965365894,-0.5915321707725525
0.32777652965365894,0.5040087103843689
0.32777652965365894,-0.5079741477966309
0.32777652965365894,0.5352075099945068
0.33213383502261484,0.9866504669189453
0.33213383502261484,0.884777843952179
0.33213383502261484,0.5004304647445679
0.33213383502261484,0.9668526649475098
0.33213383502261484,-0.5165145993232727
0.33213383502261484,-0.7706480622291565
0.336472236621213,0.9686710238456726
0.336472236621213,0.9827918410301208
0.336472236621213,-0.7706480622291565
0.336472236621213,-0.8334125876426697
0.336472236621213,-0.6862301230430603
0.32442389810503836,0.5608206987380981
0.32442389810503836,-0.5314990282058716
0.32442389810503836,-0.9537981748580933
0.32442389810503836,0.992277979850769
0.32442389810503836,-0.7184564471244812
0.32442389810503836,0.6830447912216187
0.32442389810503836,-0.7807685136795044
0.32442389810503836,-0.7408885359764099
0.32442389810503836,-0.7633237838745117
0.32442389810503836,-0.555324912071228
0.32442389810503836,-0.5494326949119568
0.32442389810503836,-0.5862235426902771
0.32442389810503836,-0.7706480622291565
0.32442389810503836,-0.7023550271987915
0.32442389810503836,-0.7726498246192932
0.32442389810503836,-0.7714211344718933
0.32442389810503836,0.9170348048210144
0.32442389810503836,-0.5883214473724365
0.32442389810503836,-0.6450704336166382
0.32442389810503836,0.5501236915588379
0.32442389810503836,-0.5815166234970093
0.32442389810503836,-0.5648095011711121
0.32442389810503836,-0.6217708587646484
0.32442389810503836,-0.8213211297988892
0.32442389810503836,-0.5148389935493469
0.32442389810503836,0.7485921382904053
0.32442389810503836,-0.7991435527801514
0.32442389810503836,-0.8437759876251221
0.32442389810503836,0.5312495827674866
0.32442389810503836,-0.6877050399780273
0.32874355924955473,0.9301777482032776
0.33304464114894544,-0.7469542026519775
0.33304464114894544,-0.8426541090011597
0.33304464114894544,0.6410276889801025
0.33304464114894544,0.891036331653595
0.33304464114894544,0.6106237173080444
0.33304464114894544,-0.5229876637458801
0.33304464114894544,-0.8654148578643799
0.33304464114894544,-0.537687361240387
0.33304464114894544,-0.6055279970169067
0.32113973864262707,-0.551666796207428
0.32113973864262707,0.5099921822547913
0.32113973864262707,0.9371322393417358
0.32113973864262707,-0.6650748252868652
0.32113973864262707,0.980661153793335
0.32113973864262707,0.8344987034797668
0.3152400165154388,0.9550559520721436
0.3152400165154388,-0.5932586789131165
0.3152400165154388,0.7273292541503906
0.3152400165154388,0.8735742568969727
0.3152400165154388,-0.7956920862197876
0.3152400165154388,-0.9123902320861816
0.3152400165154388,0.6724475622177124
0.3152400165154388,0.7724074721336365
0.3152400165154388,-0.540534257888794
0.31952267830743963,-0.5480437874794006
0.31952267830743963,-0.6850460171699524
0.31952267830743963,-0.5258699655532837
0.31952267830743963,0.6248704791069031
0.31952267830743963,-0.6599873304367065
0.30782663854424835,0.5545250177383423
0.30782663854424835,-0.8871962428092957
0.30782663854424835,0.7206047177314758
0.30782663854424835,0.9895428419113159
0.30782663854424835,-0.6143752336502075
0.3020295208599224,-0.6894849538803101
0.3020295208599224,-0.6505640149116516
0.3020295208599224,0.7342302203178406
0.3020295208599224,-0.8359296917915344
0.3020295208599224,0.5505642294883728
0.3020295208599224,0.6282339096069336
0.3020295208599224,-0.5585907101631165
0.3020295208599224,-0.5987058281898499
0.3020295208599224,0.7018773555755615
0.3020295208599224,0.6133663654327393
0.3020295208599224,0.5396996140480042
0.3020295208599224,0.6897637844085693
0.3020295208599224,-0.7651942372322083
0.3020295208599224,0.5123014450073242
0.3020295208599224,0.6609954237937927
0.3020295208599226,-0.635302722454071
0.3020295208599226,-0.6769008040428162
0.3020295208599226,0.6724475622177124
0.3020295208599226,-0.7781550288200378
0.29626581614317227,0.7189942598342896
0.29626581614317227,0.5562465190887451
0.29053514143418724,-0.8963462710380554
0.2848371203195495,-0.5430641770362854
0.2848371203195495,0.6667036414146423
0.28483712031954983,-0.8830682635307312
0.28483712031954983,0.9658626317977905
0.28483712031954983,0.515389084815979
0.28483712031954983,-0.5367166996002197
0.28483712031954983,-0.7211691737174988
0.28483712031954983,-0.5265297889709473
0.2791713827838723,0.5543747544288635
0.2791713827838723,0.6197770237922668
0.2791713827838723,-0.6260375380516052
0.2791713827838723,0.5297001600265503
0.2791713827838723,0.5536010265350342
0.2791713827838723,0.5696649551391602
0.2791713827838723,-0.7373762726783752
0.2791713827838723,0.6095649003982544
0.2791713827838723,-0.5250049829483032
0.2791713827838723,0.5158529877662659
0.2791713827838723,0.9654715657234192
0.2791713827838723,-0.6365256309509277
0.2791713827838723,-0.7278892993927002
0.2791713827838723,-0.7158664464950562
0.2834357815703299,0.9788504242897034
0.2834357815703299,0.7676463723182678
0.2834357815703299,0.9274052977561951
0.2834357815703299,0.6724475622177124
0.2834357815703297,-0.697124183177948
0.2834357815703297,-0.5885137319564819
0.2834357815703297,-0.5269060134887695
0.2834357815703299,0.5810370445251465
0.2834357815703299,-0.5611294507980347
0.2834357815703299,0.9288991093635559
0.2834357815703299,-0.5165656805038452
0.2834357815703299,0.542098343372345
0.2834357815703299,-0.5850244164466858
0.2834357815703299,-0.7706480622291565
0.2834357815703299,-0.5931509137153625
0.2834357815703299,-0.9001278281211853
0.2834357815703299,0.972671627998352
0.277801963852074,-0.7244606614112854
0.2862765908430461,0.5307758450508118
0.27510329024492064,0.621577262878418
0.27510329024492064,-0.6115752458572388
0.27510329024492064,-0.8551883697509766
0.2751032902449208,-0.7296953797340393
0.2751032902449208,0.5968996286392212
0.2751032902449208,-0.6909049153327942
0.2751032902449208,-0.516197681427002
0.2793138227812645,0.8938957452774048
0.27931382278126426,0.569667637348175
0.27931382278126426,0.531466543674469
0.27931382278126426,-0.8078336715698242
0.27377364240564894,-0.7205756306648254
0.27377364240564894,-0.7581803798675537
0.27377364240564894,-0.8191770911216736
0.27377364240564894,-0.6597059965133667
0.27377364240564894,-0.7254498600959778
0.27377364240564894,-0.6973876357078552
0.27377364240564894,-0.5479201674461365
0.27377364240564894,0.9522823691368103
0.27377364240564894,-0.6875863671302795
0.27377364240564894,-0.5973269939422607
0.27377364240564894,-0.5430490374565125
0.27377364240564894,0.6759846210479736
0.27377364240564894,-0.6971539258956909
0.27377364240564894,-0.783411979675293
0.27377364240564894,-0.540534257888794
0.27377364240564894,0.6896389126777649
0.27377364240564894,0.5247181057929993
0.27377364240564894,0.6724475622177124
0.27377364240564894,0.5555043816566467
0.26826398659467937,0.5622668862342834
0.2724568648547153,-0.6392051577568054
0.2724568648547153,-0.540534257888794
0.2724568648547153,-0.5591040253639221
0.2724568648547153,0.7430254220962524
0.2724568648547153,0.6724475622177124
0.2724568648547153,0.6327387094497681
0.2724568648547153,-0.6867184638977051
0.27245686485471515,-0.7110307812690735
0.27245686485471515,0.5098077654838562
0.26697739909008966,-0.8334676027297974
0.26697739909008966,-0.7159566283226013
0.26697739909008966,-0.5732555389404297
0.26697739909008966,-0.7448338270187378
0.26697739909008966,0.5429077744483948
0.26697739909008966,0.5329329967498779
0.26697739909008966,0.6222354173660278
0.26697739909008966,0.6826469898223877
0.26697739909008966,0.9844537377357483
0.26697739909008966,-0.7253146767616272
0.26697739909008966,0.5985056757926941
0.26697739909008966,-0.7166750431060791
0.27531078064923414,0.9951850771903992
0.27945157331526554,0.9616796970367432
0.27945157331526554,0.5904354453086853
0.27945157331526554,0.982275128364563
0.27945157331526554,-0.693877100944519
0.27945157331526554,-0.5579314827919006
0.27945157331526554,-0.8770747780799866
0.2794515733152654,0.5830028653144836
0.2794515733152654,-0.7706480622291565
0.2835752904991276,-0.7062768340110779
0.2835752904991276,-0.8107722401618958
0.2835752904991276,-0.7706480622291565
0.2835752904991276,-0.5727920532226562
0.29177205770330616,0.9898205995559692
0.29177205770330616,-0.5225509405136108
0.29177205770330616,-0.7834072113037109
0.29177205770330616,0.620964765548706
0.291772057703306,0.6315662264823914
0.291772057703306,0.7385232448577881
0.29039577832337715,0.9781510829925537
0.29039577832337715,-0.8057882189750671
0.29039577832337715,0.6200151443481445
0.29039577832337715,-0.646228015422821
0.2795848622191615,0.9546627402305603
0.2795848622191615,-0.7346721291542053
0.2795848622191615,-0.651851236820221
0.2795848622191615,-0.5395063757896423
0.2795848622191615,-0.7925561666488647
0.287682072451781,0.5766873955726624
0.287682072451781,0.9924760460853577
0.287682072451781,0.8795130252838135
0.287682072451781,0.8844990730285645
0.287682072451781,0.7171609401702881
0.287682072451781,0.5721691250801086
0.287682072451781,0.9691511392593384
0.287682072451781,0.7696149945259094
0.287682072451781,-0.537687361240387
0.2823201293103957,-0.7533419728279114
0.2823201293103957,-0.6567489504814148
0.286344279610121,-0.634277880191803
0.286344279610121,-0.8792134523391724
0.286344279610121,-0.6706566214561462
0.286344279610121,-0.5527902841567993
0.286344279610121,0.9079413414001465
0.286344279610121,0.8889783024787903
0.286344279610121,-0.5729935765266418
0.286344279610121,-0.5348770022392273
0.286344279610121,-0.5256646275520325
0.286344279610121,0.6253913640975952
0.286344279610121,-0.7412328720092773
0.286344279610121,0.9924806356430054
0.286344279610121,-0.5501640439033508
0.2943443222771975,-0.8223686814308167
0.2943443222771973,-0.836125910282135
0.28901097630183475,0.6290438771247864
0.28901097630183475,-0.8050987720489502
0.28901097630183475,-0.7655158042907715
0.28901097630183475,0.7896491289138794
0.28901097630183475,-0.7419805526733398
0.28901097630183475,0.6295742988586426
0.28901097630183475,0.9930830001831055
0.28370592407214157,-0.608729898929596
0.28370592407214157,0.8238775730133057
0.28370592407214157,-0.537687361240387
0.28370592407214157,-0.7540249824523926
0.287682072451781,0.986485481262207
0.287682072451781,-0.6841604113578796
0.29164247366787766,0.9835354089736938
0.2863654165670342,0.5134087800979614
0.2863654165670342,0.9713891744613647
0.2863654165670342,-0.6854710578918457
0.286365416567034,-0.668340802192688
0.286365416567034,-0.7721790671348572
0.2758941166997388,-0.6832221150398254
0.2655313296641923,0.5874233245849609
0.2655313296641923,-0.5409558415412903
0.2655313296641923,-0.540534257888794
0.2655313296641923,-0.5888447165489197
0.2655313296641923,-0.7261824011802673
0.26553132966419213,0.9331883192062378
0.2603899301637735,-0.6454721093177795
0.2603899301637735,0.7483410239219666
0.2643347084547898,0.5332629084587097
0.2643347084547898,-0.610964834690094
0.25921960778801917,0.9642964005470276
0.25921960778801917,0.5668459534645081
0.25921960778801917,-0.5264925360679626
0.2619737157415739,0.9769530296325684
0.2619737157415739,0.7437447905540466
0.2619737157415739,0.5244410634040833
0.2619737157415739,-0.5393896102905273
0.2619737157415739,0.9823890328407288
0.2619737157415739,0.9856690168380737
0.2619737157415739,0.9455628395080566
0.2619737157415739,-0.7706480622291565
0.2619737157415739,0.7048497796058655
0.2619737157415741,0.5025610327720642
0.2619737157415741,0.7086687684059143
0.2619737157415741,0.6667036414146423
0.2619737157415741,-0.5602881908416748
0.25691041378502716,-0.5455216765403748
0.25691041378502716,-0.5434476137161255
0.25691041378502716,-0.6406490206718445
0.25691041378502716,0.5638346672058105
0.25691041378502716,0.7748827338218689
0.25691041378502716,0.8978545069694519
0.25691041378502716,0.7142525315284729
0.25691041378502716,0.9820839762687683
0.26080905420068473,-0.7685422301292419
0.26080905420068473,-0.5890690088272095
0.26080905420068473,-0.5139289498329163
0.26080905420068473,0.7534729242324829
0.26080905420068473,-0.6461089849472046
0.26080905420068473,-0.5661608576774597
0.26080905420068473,-0.7549387216567993
0.26080905420068456,0.9848729372024536
0.26080905420068456,0.595493495464325
0.26080905420068456,0.6997610330581665
0.26080905420068456,-0.7706480622291565
0.26080905420068456,0.617896556854248
0.2557712601707273,0.5747630596160889
0.2557712601707273,-0.7937706708908081
0.2557712601707273,-0.6980444192886353
0.2557712601707273,-0.7673054933547974
0.2557712601707273,-0.7141053080558777
0.25577126017072715,0.9107120633125305
0.25577126017072715,-0.6891921162605286
0.2457711768361441,0.951572060585022
0.2457711768361441,-0.5493080615997314
0.2457711768361441,-0.752080500125885
0.2457711768361441,0.5066089034080505
0.2457711768361441,0.6189665198326111
0.2457711768361441,-0.5530479550361633
0.2457711768361441,-0.6872699856758118
0.2457711768361441,-0.5128875374794006
0.2457711768361441,-0.5857234597206116
0.2457711768361441,-0.7072190642356873
0.2457711768361441,-0.6869283318519592
0.22606610575681144,0.5849254131317139
0.22994960578320942,0.963711142539978
0.22994960578320942,-0.7698407173156738
0.22508341613203645,-0.7663676142692566
0.22508341613203645,0.9146735072135925
0.22508341613203645,-0.7706480622291565
0.22508341613203645,-0.5905534029006958
0.22508341613203645,-0.7221962213516235
0.22508341613203645,-0.7706480622291565
0.22508341613203645,0.6015257239341736
0.22508341613203645,-0.5111029744148254
0.22508341613203645,-0.6495419144630432
0.22508341613203645,0.9463447332382202
0.22508341613203645,0.5126011967658997
0.22508341613203645,-0.7364696264266968
0.22508341613203645,0.9866449236869812
0.22508341613203645,-0.5797650814056396
0.22508341613203645,-0.5901660323143005
0.22508341613203645,0.6147342920303345
0.22508341613203645,-0.6512773036956787
0.22508341613203645,-0.533193826675415
0.22508341613203645,-0.6988380551338196
0.22508341613203645,0.9410681128501892
0.22508341613203645,0.5166874527931213
0.22508341613203645,-0.5224268436431885
0.22508341613203645,0.649250328540802
0.22508341613203645,0.8869888782501221
0.22508341613203645,-0.5273016095161438
0.22508341613203645,0.5279678702354431
0.22508341613203645,0.985009491443634
0.22895189290995657,0.9801164865493774
0.22895189290995657,0.5590097904205322
0.2289518929099564,-0.5162640810012817
0.2289518929099564,-0.7400614023208618
0.2289518929099564,-0.537687361240387
0.2289518929099564,0.981208086013794
0.23280546222594656,-0.525380551815033
0.23280546222594656,-0.5331639051437378
0.23280546222594656,0.5006301403045654
0.23280546222594656,0.7100961804389954
0.23280546222594672,-0.5510792136192322
0.23280546222594672,0.6020517349243164
0.23280546222594672,0.829927384853363
0.23280546222594672,-0.6292381286621094
0.23280546222594672,-0.7321925163269043
0.23280546222594672,-0.7333873510360718
0.23280546222594656,-0.5676066279411316
0.23280546222594656,0.9862355589866638
0.23280546222594656,-0.6403723359107971
0.23280546222594656,-0.5819538235664368
0.23280546222594656,-0.5969615578651428
0.23943523891239538,0.6336224675178528
0.23943523891239554,-0.5619442462921143
0.23943523891239554,-0.5740302205085754
0.23943523891239554,0.5876463651657104
0.23943523891239554,-0.6665615439414978
0.23943523891239554,-0.8969560265541077
0.23943523891239554,0.879463255405426
0.23943523891239554,0.6580892205238342
0.23943523891239554,-0.526129961013794
0.23943523891239554,-0.8405953645706177
0.23943523891239554,0.9621092081069946
0.23943523891239554,-0.517558753490448
0.23943523891239554,-0.5368494987487793
0.24323030988094718,-0.6257671117782593
0.24323030988094718,-0.8945603966712952
0.24701103272085306,0.9923011064529419
0.24701103272085306,0.5830028653144836
0.24701103272085306,-0.5776556134223938
0.24701103272085306,-0.7364000082015991
0.24701103272085306,-0.7706480622291565
0.24701103272085306,0.7458029389381409
0.24701103272085306,-0.601320743560791
0.24701103272085306,0.5225693583488464
0.24701103272085306,-0.5392455458641052
0.24701103272085306,-0.6526867151260376
0.24701103272085306,0.9860187768936157
0.24701103272085306,-0.7706480622291565
0.24701103272085306,-0.5157516002655029
0.24701103272085323,0.5319047570228577
0.24219174628490434,-0.7489224672317505
0.24219174628490417,-0.6328356862068176
0.24219174628490417,-0.8755000233650208
0.24219174628490417,-0.7698407173156738
0.24219174628490417,-0.836125910282135
0.24219174628490434,-0.8972235918045044
0.24219174628490417,-0.6210063695907593
0.24219174628490417,0.9103459715843201
0.24219174628490417,0.919983446598053
0.24219174628490417,0.683083176612854
0.24219174628490417,0.9842349886894226
0.2373955740214111,-0.5843563079833984
0.2373955740214111,-0.6829491853713989
0.2373955740214111,-0.6856644749641418
0.2373955740214111,-0.7027463912963867
0.2373955740214111,-0.8315300941467285
0.2373955740214111,0.6872117519378662
0.2373955740214111,0.9540277719497681
0.23739557402141126,-0.7343591451644897
0.2449144064354386,-0.7708128094673157
0.2449144064354386,-0.7520945072174072
0.2449144064354386,0.7492343783378601
0.2449144064354386,0.9656368494033813
0.2449144064354386,-0.8265508413314819
0.2449144064354386,0.9814906120300293
0.2449144064354386,-0.6578468680381775
0.2449144064354386,0.6724475622177124
0.2449144064354386,0.5034008622169495
0.2449144064354386,-0.5905711054801941
0.2449144064354386,-0.771853506565094
0.2449144064354386,0.7585871815681458
0.2449144064354386,-0.5594762563705444
0.2449144064354386,0.9870656728744507
0.24014112768278062,0.601639449596405
0.24014112768278062,0.719611406326294
0.24014112768278062,0.6203428506851196
0.24014112768278062,0.6198373436927795
0.24014112768278062,-0.6079936623573303
0.24014112768278062,0.9339988827705383
0.2401411276827808,0.6088531613349915
0.2438794497933881,-0.7126859426498413
0.2438794497933881,-0.7066489458084106
0.2438794497933881,-0.6428022384643555
0.2438794497933881,-0.5951158404350281
0.2438794497933881,-0.6237928867340088
0.2438794497933881,0.5184933543205261
0.2476038488843705,0.9873866438865662
0.2476038488843705,-0.5190050005912781
0.2476038488843705,0.9824288487434387
0.2476038488843705,-0.8245837688446045
0.25131442828090617,0.6345319747924805
0.25131442828090617,-0.5897906422615051
0.25131442828090617,0.5534258484840393
0.25131442828090617,0.7159980535507202
0.25131442828090617,0.9890007972717285
0.25131442828090617,-0.5576022267341614
0.25131442828090617,0.8376615047454834
0.25131442828090617,-0.628123939037323
0.25131442828090583,-0.5612476468086243
0.25131442828090583,0.8388659358024597
0.24656382552230835,0.9143061637878418
0.24656382552230835,0.8250594735145569
0.24656382552230835,0.5418757796287537
0.24656382552230835,-0.8079554438591003
0.24553254620768836,-0.7997136116027832
0.24553254620768836,0.9895977973937988
0.24553254620768836,0.9519807696342468
0.24553254620768836,0.778090238571167
0.24553254620768836,0.6425265073776245
0.24553254620768836,0.6667036414146423
0.24553254620768836,-0.5980579257011414
0.24553254620768836,0.9594762921333313
0.23614280585784914,0.8049413561820984
0.23982605127414577,0.9746738076210022
0.23982605127414577,0.6813865303993225
0.2351640381683345,0.9504463076591492
0.2351640381683345,-0.6531832814216614
0.2351640381683345,0.553320050239563
0.2351640381683345,-0.5141734480857849
0.2351640381683345,-0.6726223230361938
0.2351640381683345,-0.5689466595649719
0.2351640381683345,0.8834288120269775
0.2351640381683345,-0.7706480622291565
0.2351640381683345,-0.5208562016487122
0.2351640381683345,0.7216512560844421
0.2351640381683345,-0.7683889865875244
0.2351640381683345,0.9456562995910645
0.23052365861183252,-0.529410183429718
0.23052365861183252,-0.8515262603759766
0.23052365861183235,-0.6648476719856262
0.23052365861183235,-0.5472928285598755
0.23052365861183235,-0.5072863698005676
0.23052365861183235,0.503724217414856
0.23052365861183235,-0.5546563267707825
0.23052365861183216,0.5992054343223572
0.23052365861183216,0.8650692701339722
0.23052365861183216,0.848534345626831
0.23052365861183216,0.7985075116157532
0.2259047127555377,-0.5482472777366638
0.2259047127555377,0.7831481099128723
0.2259047127555377,0.9912025928497314
0.2259047127555377,-0.5274578332901001
0.2259047127555377,-0.8390349745750427
0.2259047127555375,0.6075395345687866
0.2259047127555375,0.5574250817298889
0.22957444164450017,-0.6468464136123657
0.22497673239587085,-0.6605344414710999
0.22497673239587085,-0.50225430727005
0.22497673239587085,-0.8771512508392334
0.22497673239587085,-0.9296653270721436
0.22497673239587085,0.992277979850769
0.22497673239587085,0.6015037894248962
0.22497673239587085,0.5342578291893005
0.22497673239587065,0.659627377986908
0.22497673239587065,0.579382598400116
0.22497673239587065,-0.5301099419593811
0.220400065368459,-0.6780211329460144
0.220400065368459,0.6315734386444092
0.220400065368459,-0.7660564184188843
0.220400065368459,0.98633873462677
0.220400065368459,-0.5434184074401855
0.220400065368459,-0.5203287601470947
0.220400065368459,0.5810734033584595
0.220400065368459,-0.866432249546051
0.220400065368459,-0.8705141544342041
0.22405637657156943,0.8350486159324646
0.22405637657156943,0.5197188258171082
0.22405637657156943,-0.68192458152771
0.22405637657156943,0.530765175819397
0.22405637657156943,0.5778955221176147
0.22405637657156943,-0.5689031481742859
0.22405637657156943,-0.5146529674530029
0.22405637657156943,0.8607954978942871
0.22769936785007064,0.9296832084655762
0.22769936785007064,-0.5973788499832153
0.22769936785007064,0.7749633193016052
0.22769936785007064,0.5799369215965271
0.22769936785007064,-0.7389592528343201
0.22769936785007064,0.5958184003829956
0.22769936785007064,-0.6849281191825867
0.22769936785007047,0.5141571760177612
0.22769936785007047,-0.5174291729927063
0.22769936785007047,0.9864523410797119
0.22769936785007047,0.8279160857200623
0.22769936785007047,-0.6891553997993469
0.22769936785007064,-0.6978869438171387
0.22769936785007047,0.9098300933837891
0.22769936785007047,-0.6320043802261353
0.22769936785007047,0.7379137277603149
0.22769936785007047,-0.5277684926986694
0.22769936785007047,0.8290913105010986
0.22769936785007047,0.8862506747245789
0.22769936785007047,-0.5369574427604675
0.22314355131420957,-0.6023777723312378
0.22314355131420976,-0.6556289196014404
0.22314355131420976,0.9558023810386658
0.22314355131420976,-0.6831347942352295
0.22677331936478853,0.8661970496177673
0.22677331936478837,0.5318182110786438
0.22677331936478837,-0.5404667854309082
0.22677331936478837,-0.6342789530754089
0.22677331936478837,0.8555501103401184
0.22677331936478837,0.9727234840393066
0.22677331936478837,0.5818454623222351
0.21772348384487053,-0.6900419592857361
0.21772348384487053,0.821153461933136
0.21772348384487053,0.9854179620742798
0.21772348384487053,0.5499288439750671
0.22134012431505898,0.8187263607978821
0.22134012431505898,0.713634192943573
0.22134012431505898,0.969722330570221
0.22134012431505898,-0.5559515357017517
0.22134012431505898,-0.7207574844360352
0.22134012431505898,0.5713528990745544
0.22134012431505898,0.6178340315818787
0.22134012431505898,0.5315459370613098
0.22134012431505917,0.6010777950286865
0.22134012431505917,-0.571349561214447
0.22853439994908603,0.9695845246315002
0.23567728746146646,0.9695845246315002
0.24629685628892645,0.9755886793136597
0.24981179839637124,-0.6767441630363464
0.24882003935973396,0.5731936097145081
0.24882003935973396,-0.5955870747566223
0.24882003935973396,-0.7994768023490906
0.24882003935973396,-0.5463887453079224
0.24434575896481248,0.9908866882324219
0.24434575896481248,0.5155419707298279
0.24434575896481267,-0.8409844636917114
0.24434575896481267,0.5843261480331421
0.24783616390458127,0.9566787481307983
0.24783616390458127,-0.666629433631897
0.24783616390458127,-0.6476019620895386
0.24783616390458127,-0.5404518246650696
0.24783616390458127,0.5104647874832153
0.24783616390458127,0.8919820785522461
0.24783616390458127,-0.6278432607650757
0.24783616390458127,-0.525908887386322
0.24338181355520097,-0.64533531665802
0.24338181355520097,0.6541460752487183
0.24338181355520097,-0.5743074417114258
0.24338181355520097,0.7443126440048218
0.24338181355520097,-0.6767441630363464
0.24338181355520097,-0.5858861207962036
0.24338181355520097,0.7251611948013306
0.2389472164873353,0.5504688024520874
0.2389472164873353,0.5112960338592529
0.2389472164873353,0.651652991771698
0.2389472164873353,0.6088555455207825
0.2389472164873353,0.6751264333724976
0.2389472164873353,-0.6239517331123352
0.2389472164873353,0.5546572804450989
0.23894721648733513,-0.5910130739212036
0.23894721648733513,0.7029691338539124
0.2257602122053816,-0.5994980335235596
0.22140290683642583,-0.5452439188957214
0.22140290683642583,0.6627731919288635
0.22140290683642566,0.6703112125396729
0.22140290683642566,0.6663271188735962
0.22140290683642583,-0.5007762312889099
0.22140290683642583,0.6515165567398071
0.22140290683642583,-0.5412264466285706
0.22140290683642566,0.5777432322502136
0.22140290683642566,-0.5578305721282959
0.22140290683642566,0.5410639047622681
0.2170645052378274,0.5673685669898987
0.2170645052378274,0.6183179616928101
0.22054276961415237,0.7010881900787354
0.22400897759063856,0.5398648977279663
0.22400897759063856,0.6081761121749878
0.22400897759063856,0.7551137804985046
0.2196893164461223,-0.7163460850715637
0.2196893164461223,0.9870644807815552
0.21968931644612213,0.6085901260375977
0.21968931644612213,-0.5870522260665894
0.21538823454673156,-0.8040710687637329
0.21538823454673156,0.5061306357383728
0.21538823454673156,0.6303021907806396
0.21110557275473077,0.9713041186332703
0.2111055727547306,-0.540769636631012
0.2111055727547306,0.7028398513793945
0.2111055727547306,0.5307881832122803
0.2111055727547306,0.5061306357383728
0.2111055727547306,0.5210849046707153
0.2111055727547306,-0.649804949760437
0.2111055727547306,-0.6391825675964355
0.2111055727547306,-0.6650717258453369
0.2111055727547306,0.7598763108253479
0.2111055727547306,0.546711802482605
0.2111055727547306,0.5163653492927551
0.2111055727547306,0.5818454623222351
0.2111055727547306,-0.5923511385917664
0.21110557275473077,-0.8003320693969727
0.21110557275473077,0.9137552976608276
0.21110557275473077,0.527097225189209
0.21110557275473077,0.9872165322303772
0.21110557275473077,-0.7384734749794006
0.21110557275473077,-0.6328044533729553
0.20684117396827328,0.9709531664848328
0.21029540883636075,0.9497705101966858
0.21029540883636075,-0.5478588938713074
0.2094914621458825,0.8411970734596252
0.2094914621458825,0.5433731079101562
0.2094914621458825,-0.7576571106910706
0.21292199724267152,0.9907903671264648
0.21292199724267152,-0.579888641834259
0.21292199724267152,0.621062695980072
0.21292199724267152,-0.7602243423461914
0.21292199724267152,-0.8564969301223755
0.21292199724267152,0.6623893976211548
0.21292199724267152,-0.7329754829406738
0.21292199724267152,0.959854245185852
0.21292199724267152,-0.5906252861022949
0.21292199724267152,-0.823879063129425
0.21292199724267152,0.5225208401679993
0.21292199724267152,-0.6885571479797363
0.21292199724267152,0.7301868200302124
0.21292199724267152,0.5340335965156555
0.21292199724267152,0.9899101853370667
0.21292199724267152,0.91440349817276
0.21292199724267152,0.9908826947212219
0.21634080399145725,0.6272426247596741
0.21634080399145725,0.5482032895088196
0.21634080399145725,-0.6150963306427002
0.21634080399145725,-0.5478061437606812
0.21634080399145725,0.7069230079650879
0.21211246788193613,0.6867715120315552
0.21211246788193594,-0.5366144776344299
0.21211246788193594,0.534213125705719
0.21211246788193594,0.6638681888580322
0.22229931318892923,-0.8045461177825928
0.22229931318892923,0.5414444208145142
0.21389590239254944,-0.5524317622184753
0.21389590239254944,-0.7183348536491394
0.21389590239254944,-0.7911384701728821
0.21389590239254944,-0.6828144192695618
0.21389590239254944,-0.5338947176933289
0.21389590239254944,-0.6573837995529175
0.2138959023925498,0.5080636143684387
0.20556252083340526,0.9285910129547119
0.20556252083340543,0.507455050945282
0.20556252083340543,-0.5482866168022156
0.20556252083340543,0.9399157762527466
0.20556252083340543,0.9447057247161865
0.20556252083340543,-0.5461471080780029
0.20556252083340543,0.9619251489639282
0.20556252083340543,-0.6903916597366333
0.20556252083340543,-0.6057353019714355
0.20556252083340543,-0.5701103806495667
0.20556252083340543,-0.7702190279960632
0.20556252083340543,0.9740236401557922
0.20556252083340543,-0.5963729619979858
0.20556252083340543,0.5901110172271729
0.20556252083340543,-0.6248764395713806
0.20556252083340543,-0.5949205160140991
0.20556252083340543,0.9846935272216797
0.20556252083340543,-0.6181577444076538
0.20556252083340526,0.9734162092208862
0.20556252083340526,0.9505846500396729
0.20556252083340526,-0.7544015049934387
0.20556252083340526,0.7546142935752869
0.20556252083340526,0.7051185369491577
0.20556252083340526,-0.5866739749908447
0.20556252083340526,0.5895482897758484
0.20556252083340526,-0.6815969944000244
0.20556252083340526,-0.5741112232208252
0.20556252083340543,0.5518829226493835
0.20556252083340543,-0.6768881678581238
0.20142172816737391,0.6576661467552185
0.20142172816737391,0.6253725290298462
0.20479441264601306,0.7984122633934021
0.20479441264601306,0.6027184128761292
0.20479441264601306,0.9604641199111938
0.20479441264601306,0.5940151214599609
0.20479441264601306,-0.5180165767669678
0.20815576034871797,0.9734697937965393
0.21150584723399984,0.8278231620788574
0.21484474849951474,-0.5128685235977173
0.21484474849951474,0.6381884217262268
0.21484474849951474,-0.650397002696991
0.21484474849951454,0.9261046648025513
0.21484474849951454,0.9396960139274597
0.21484474849951454,-0.5702170729637146
0.21484474849951454,-0.7267160415649414
0.21484474849951474,0.8321229219436646
0.21484474849951474,0.5441304445266724
0.2181725385921893,0.7499289512634277
0.2181725385921893,0.6320725679397583
0.2181725385921893,0.9337014555931091
0.2247950793526827,-0.8262038230895996
0.2247950793526827,0.6110829710960388
0.2247950793526827,0.9162353873252869
0.2247950793526827,-0.8021395802497864
0.2247950793526827,-0.6943215131759644
0.2247950793526827,-0.6296233534812927
0.2247950793526827,-0.6716433763504028
0.2247950793526827,-0.8325684070587158
0.2247950793526827,-0.5492862462997437
0.22479507935268286,0.5257634520530701
0.22479507935268286,-0.7337020635604858
0.22479507935268286,0.9531152844429016
0.2247950793526827,-0.8551504015922546
0.2247950793526827,0.6956867575645447
0.2247950793526827,0.5818454623222351
0.2247950793526827,-0.6152946352958679
0.2247950793526827,-0.5076960921287537
0.22808997524953534,0.5603558421134949
0.22808997524953534,0.639402449131012
0.22808997524953534,-0.5099371075630188
0.22808997524953534,-0.5152065753936768
0.2239662580656733,-0.6214375495910645
0.2239662580656733,0.6980200409889221
0.2239662580656733,-0.6017767786979675
0.2239662580656733,-0.5954416990280151
0.2239662580656733,-0.9141050577163696
0.2239662580656733,-0.7602243423461914
0.2239662580656733,-0.5111982226371765
0.2239662580656733,0.6874797940254211
0.2239662580656733,0.9947450160980225
0.2239662580656733,-0.5107405781745911
0.2239662580656733,-0.5436100959777832
0.2239662580656733,-0.5527828335762024
0.2272503332668631,0.9695090055465698
0.2272503332668631,-0.5314530730247498
0.2272503332668631,0.9246740937232971
0.2272503332668631,-0.5864583849906921
0.2272503332668631,0.6011760830879211
0.2272503332668631,-0.6601883769035339
0.2272503332668631,0.5696006417274475
0.2272503332668631,0.9703896641731262
0.2337863042466488,0.6692447662353516
0.2337863042466488,0.5567413568496704
0.2337863042466488,-0.503362774848938
0.2337863042466488,0.9746091365814209
0.237038339633026,-0.7647318243980408
0.237038339633026,0.9796581268310547
0.237038339633026,0.742493212223053
0.2402798335571969,-0.5038402080535889
0.2402798335571969,0.7989041209220886
0.2402798335571969,-0.5794355869293213
0.2402798335571969,-0.5840473771095276
0.2402798335571969,-0.537911593914032
0.2402798335571969,-0.6925018429756165
0.2402798335571969,-0.6980280876159668
0.23617305160454344,-0.6070614457130432
0.23617305160454344,0.6934054493904114
0.23617305160454344,-0.6574791669845581
0.23617305160454344,-0.5997459292411804
0.23617305160454344,-0.6488977670669556
0.23617305160454344,-0.5077069997787476
0.23940407218599022,0.9522144198417664
0.23940407218599022,0.5328395962715149
0.23940407218599022,-0.563016414642334
0.23940407218599022,-0.6651967763900757
0.23940407218599022,0.5333108305931091
0.23940407218599022,0.9869769215583801
0.23940407218599022,-0.6119323372840881
0.23940407218599022,0.9903762936592102
0.23940407218599022,0.8741012215614319
0.23940407218599022,-0.5309480428695679
0.23940407218599022,0.9071232080459595
0.23940407218599022,0.6649000644683838
0.23940407218599022,-0.6481229066848755
0.23940407218599022,-0.6448249816894531
0.23940407218599022,-0.6665286421775818
0.23940407218599022,-0.8490550518035889
0.23940407218599022,0.565773606300354
0.23940407218599022,-0.609666109085083
0.23940407218599022,-0.6438007354736328
0.23940407218599022,-0.6793462038040161
0.2426246868860322,-0.8035182356834412
0.24583496251628056,-0.5703204274177551
0.24583496251628056,-0.6152869462966919
0.24583496251628056,0.5625486373901367
0.24583496251628056,0.9731488227844238
0.24583496251628056,0.6525888442993164
0.24583496251628056,0.5576807260513306
0.24583496251628056,0.5950254201889038
0.24583496251628056,-0.6626855134963989
0.24583496251628056,-0.5406331419944763
0.24583496251628056,0.6442914009094238
0.24583496251628056,0.9918951392173767
0.24583496251628037,0.9009209275245667
0.24583496251628037,-0.5698691010475159
0.24583496251628037,-0.6306145191192627
0.24583496251628056,0.9739751219749451
0.24583496251628056,-0.5421925783157349
0.24583496251628056,0.5818454623222351
0.24583496251628056,-0.6775543689727783
0.24583496251628056,-0.5715445280075073
0.24583496251628056,0.875046968460083
0.24903496524695137,0.6548990607261658
0.24903496524695137,-0.6103889346122742
0.24903496524695137,0.5344693064689636
0.24903496524695137,0.5274373888969421
0.2522247606150515,0.9138933420181274
0.2522247606150515,0.9940339922904968
0.2522247606150515,0.5787205696105957
0.25222476061505167,0.956196129322052
0.25540441353243115,0.8412021994590759
0.25540441353243115,0.692355215549469
0.25540441353243115,0.9857432246208191
0.2617335485840786,0.981123149394989
0.2617335485840786,-0.6441581845283508
0.2617335485840786,0.640135645866394
0.2617335485840786,0.9299030303955078
0.2617335485840786,-0.6407610774040222
0.2617335485840786,-0.7353543639183044
0.2617335485840786,0.6624237895011902
0.2617335485840786,0.6439054012298584
0.26173354858407877,-0.6613708734512329
0.26173354858407877,0.9917261600494385
0.26173354858407877,0.9366213083267212
0.26173354858407877,0.5728577375411987
0.26173354858407893,-0.5485701560974121
0.26173354858407893,-0.6880390644073486
0.26173354858407893,-0.6346268653869629
0.26173354858407893,-0.8749136924743652
0.26173354858407893,0.6806312799453735
0.26173354858407893,0.6302386522293091
0.26173354858407893,0.6951223015785217
0.26173354858407893,-0.86708664894104
0.26173354858407893,0.7043371796607971
0.26173354858407893,0.9657346606254578
0.26173354858407893,0.8748767375946045
0.26173354858407893,0.6548862457275391
0.26173354858407877,0.9753450155258179
0.26173354858407877,-0.55894535779953
0.264883157486975,0.9257534146308899
0.264883157486975,-0.573768675327301
0.264883157486975,-0.7304599285125732
0.26802287749164266,0.6629956364631653
0.26802287749164266,0.9607974290847778
0.26802287749164266,-0.5812715888023376
0.2711527705005703,0.9629673361778259
0.2711527705005703,-0.5225001573562622
0.2711527705005703,0.501651406288147
0.26706278524904514,0.6461160182952881
0.26706278524904514,-0.6313645839691162
0.26706278524904514,0.7770352959632874
0.270182912585289,-0.7435463666915894
0.270182912585289,0.8241528868675232
0.270182912585289,0.6202549338340759
0.270182912585289,0.5207836627960205
0.270182912585289,0.9500828385353088
0.270182912585289,0.5552965402603149
0.27329333499968134,-0.608687698841095
0.2692200096120458,0.7652745842933655
0.27232078729029374,0.8694128394126892
0.27232078729029374,0.5265420079231262
0.27232078729029374,0.7390984892845154
0.27232078729029374,-0.5072655081748962
0.27232078729029374,-0.6533795595169067
0.27232078729029374,0.6165424585342407
0.27232078729029374,-0.5514795780181885
0.27232078729029374,0.9855201840400696
0.27232078729029374,0.8868511319160461
0.2754119798599666,-0.6271836757659912
0.2754119798599666,0.50642991065979
0.2754119798599666,-0.7602243423461914
0.2754119798599666,-0.6778693199157715
0.2754119798599666,-0.5282524824142456
0.2754119798599666,-0.5169447064399719
0.2754119798599666,-0.5198060870170593
0.2754119798599666,-0.7264164090156555
0.2754119798599666,0.6175870895385742
0.2754119798599666,-0.72129225730896
0.2754119798599666,0.5755825638771057
0.2784936463973746,-0.6353446245193481
0.2784936463973746,0.5423594117164612
0.2784936463973748,-0.8158084154129028
0.2784936463973748,0.7267894744873047
0.2784936463973746,-0.617341160774231
0.2784936463973746,-0.634240984916687
0.2784936463973746,-0.507067084312439
0.2784936463973746,0.7357538938522339
0.2784936463973746,-0.6437227725982666
0.2775090447387306,-0.5833554863929749
0.2775090447387306,0.9292347431182861
0.2694444849019999,-0.5537785887718201
0.2694444849019999,0.9333080053329468
0.2725072744325455,-0.5905752182006836
0.2725072744325455,-0.6172613501548767
0.2725072744325455,-0.5693609714508057
0.268499253035007,0.7004675269126892
0.27155269052189734,-0.5786604881286621
0.2745968329031253,-0.5951955318450928
0.2745968329031253,0.5430591702461243
0.2745968329031253,-0.661748468875885
0.2745968329031253,0.6929810047149658
0.2745968329031253,-0.5906022787094116
0.2745968329031253,0.6118597984313965
0.2745968329031253,-0.6767441630363464
0.2745968329031253,-0.5665579438209534
0.2745968329031253,0.9006768465042114
0.2745968329031253,0.581282913684845
0.2745968329031253,-0.6019186973571777
0.2745968329031253,-0.7812809944152832
0.2745968329031253,0.9943385720252991
0.2745968329031253,-0.5204865336418152
0.2745968329031253,-0.5766473412513733
0.27060481163358796,0.5038830637931824
0.273639715328742,0.780514657497406
0.273639715328742,0.8189821243286133
0.273639715328742,0.9427686333656311
0.273639715328742,-0.5253387689590454
0.273639715328742,0.944579541683197
0.273639715328742,-0.5917444825172424
0.273639715328742,-0.5166243314743042
0.273639715328742,0.5616451501846313
0.2826895508486599,0.9950428009033203
0.2826895508486599,0.5254251956939697
0.2826895508486599,0.9640365242958069
0.2826895508486599,-0.5188822746276855
0.2826895508486599,0.9224604368209839
0.2826895508486599,0.5818454623222351
0.2826895508486599,0.7269931435585022
0.2826895508486599,0.536459743976593
0.2826895508486599,0.8292885422706604
0.28568805384491663,0.9729869365692139
0.28568805384491663,0.8883521556854248
0.28568805384491647,-0.783083438873291
0.28568805384491647,-0.5719469785690308
0.28568805384491647,0.7023748755455017
0.28568805384491647,-0.5562969446182251
0.28568805384491647,-0.568750262260437
0.28867759269328247,0.9624987840652466
0.28867759269328247,-0.5628296136856079
0.28867759269328247,0.587016761302948
0.28867759269328247,-0.8266457915306091
0.28867759269328247,-0.7019492387771606
0.2847014443136429,0.945120632648468
0.2807410430975461,-0.5682224035263062
0.2807410430975461,0.5796632170677185
0.2807410430975461,0.8711958527565002
0.2807410430975461,0.9667656421661377
0.2807410430975461,0.9836286306381226
0.2807410430975461,0.643310010433197
0.2807410430975461,-0.5152238011360168
0.2807410430975461,0.5664183497428894
0.2807410430975461,0.6847398281097412
0.2807410430975461,0.9552087783813477
0.2807410430975463,-0.5744310021400452
0.2807410430975463,-0.6634422540664673
0.2837216712356841,0.8954708576202393
0.2837216712356841,0.6187000870704651
0.2837216712356841,0.9645176529884338
0.2837216712356841,0.9952476620674133
0.2837216712356841,-0.5483226776123047
0.2837216712356841,0.9173968434333801
0.2837216712356841,-0.6385912895202637
0.2837216712356841,0.9725675582885742
0.2837216712356841,0.9704782366752625
0.2837216712356841,0.7692633271217346
0.2837216712356841,0.532169759273529
0.2837216712356841,-0.5338285565376282
0.2837216712356841,-0.510194718837738
0.2837216712356841,0.5757287740707397
0.2837216712356841,-0.5944450497627258
0.27977689294466773,-0.6427865624427795
0.27977689294466773,0.6259039640426636
0.27977689294466773,0.6580439209938049
0.27977689294466773,-0.733990490436554
0.27977689294466773,0.5613281726837158
0.27977689294466773,0.7137877941131592
0.27977689294466773,-0.7314711213111877
0.27977689294466773,0.5974588394165039
0.27977689294466773,0.9419822096824646
0.27977689294466773,0.9510607719421387
0.27977689294466773,0.6681690216064453
0.28274866333382503,0.9378936290740967
0.28274866333382503,-0.6191869378089905
0.28274866333382503,0.8531884551048279
0.28274866333382503,0.5613822937011719
0.28274866333382503,-0.7245969176292419
0.28274866333382503,-0.5188654661178589
0.28274866333382503,-0.5060364007949829
0.28274866333382503,-0.8095821142196655
0.27881938519393556,-0.7088673114776611
0.27881938519393556,-0.5173479914665222
0.27881938519393556,0.5425834655761719
0.27881938519393556,0.6732602715492249
0.2749054858727992,0.5227097868919373
0.2749054858727992,0.5767528414726257
0.2749054858727992,0.5192499756813049
0.2778684510034563,0.60060054063797
0.2778684510034563,0.6473636031150818
0.2778684510034563,0.6261517405509949
0.2778684510034563,-0.6767441630363464
0.2778684510034563,-0.5518379807472229
0.2778684510034563,-0.5216447114944458
0.2778684510034563,0.8346404433250427
0.2778684510034563,0.6481493711471558
0.2778684510034563,-0.5986878275871277
0.2778684510034563,-0.5698691010475159
0.2778684510034563,0.5184808969497681
0.2778684510034563,0.9663392305374146
0.2778684510034563,-0.5227835178375244
0.2778684510034563,0.910256028175354
0.2778684510034563,0.5333349704742432
0.2808226629008878,0.7213177680969238
0.2808226629008878,0.8143441677093506
0.2808226629008878,0.5986336469650269
0.2808226629008878,-0.5522990822792053
0.2808226629008878,0.9760112762451172
0.2808226629008878,0.5287115573883057
0.2808226629008878,0.9813408851623535
0.2808226629008878,-0.5540621280670166
0.2808226629008878,0.6685335636138916
0.2808226629008878,-0.502771258354187
0.2808226629008878,-0.6117686033248901
0.2808226629008878,0.9814341068267822
0.2808226629008878,0.9885228872299194
0.2808226629008878,-0.8744334578514099
0.2808226629008878,-0.7595857977867126
0.2808226629008878,-0.5546678304672241
0.2808226629008878,-0.8820565938949585
0.2837681731306446,0.9082062244415283
0.2837681731306446,-0.6768314242362976
0.2837681731306446,-0.775031328201294
0.2837681731306446,0.8025301098823547
0.2837681731306446,-0.6031174063682556
0.2837681731306446,-0.5953797101974487
0.2867050328039545,0.6025777459144592
0.2867050328039545,0.6492680311203003
0.2867050328039545,-0.5561375617980957
0.2867050328039545,-0.6992729306221008
0.2867050328039545,-0.6819623708724976
0.2867050328039545,-0.9005171656608582
0.28670503280395415,0.9869281649589539
0.28670503280395415,-0.8645092248916626
0.28670503280395415,0.5968108773231506
0.28963329258304266,-0.6817628145217896
0.28963329258304266,-0.6929317116737366
0.28963329258304266,0.6103436946868896
0.28963329258304266,-0.7422560453414917
0.28963329258304266,-0.7425370812416077
0.28963329258304266,-0.6810979247093201
0.28963329258304266,-0.642066478729248
0.28963329258304266,0.9820820689201355
0.28963329258304266,0.9615188837051392
0.28963329258304266,-0.5629451870918274
0.28963329258304266,-0.7853037118911743
0.28963329258304266,0.5937328338623047
0.28963329258304266,-0.5094640851020813
0.28963329258304266,-0.7469459176063538
0.28963329258304266,-0.7291167974472046
0.28963329258304266,-0.7661404609680176
0.28963329258304266,0.5663260817527771
0.28963329258304266,-0.8910672664642334
0.28963329258304266,0.916587233543396
0.28963329258304266,0.5194011330604553
0.28963329258304266,-0.6194615364074707
0.28963329258304266,0.9171879291534424
0.28963329258304266,-0.7118189334869385
0.28963329258304266,-0.5810731053352356
0.28963329258304266,-0.6743886470794678
0.28963329258304266,-0.6882496476173401
0.28963329258304266,-0.8461492657661438
0.28963329258304266,0.6210891604423523
0.28963329258304266,-0.7340658903121948
0.28963329258304266,-0.6744323968887329
0.2896332925830428,-0.8041868209838867
0.2896332925830428,-0.8509030342102051
0.2896332925830428,-0.7542661428451538
0.2896332925830428,-0.7175325751304626
0.2896332925830428,-0.7469585537910461
0.2896332925830428,-0.598837673664093
0.2896332925830428,-0.6502890586853027
0.2896332925830428,0.6360508799552917
0.29255300268637746,0.6288716197013855
0.29255300268637746,-0.6417418122291565
0.29255300268637746,-0.8564969301223755
0.29255300268637746,0.6038068532943726
0.29255300268637746,-0.8564969301223755
0.29255300268637746,-0.8688557147979736
0.29255300268637746,-0.8564969301223755
0.29255300268637746,-0.8993576169013977
0.29255300268637746,-0.8564969301223755
0.29255300268637746,-0.915172278881073
0.29255300268637746,0.8160400986671448
0.29255300268637746,-0.7093730568885803
0.29255300268637746,0.5736428499221802
0.29255300268637746,-0.5620099902153015
0.29255300268637746,-0.6539717316627502
0.29255300268637746,-0.7342516779899597
0.29255300268637746,-0.6957449316978455
0.2954642128938359,0.5540218949317932
0.2954642128938359,-0.8484489321708679
0.2954642128938359,-0.6044582724571228
0.2954642128938359,-0.7611751556396484
0.2954642128938359,-0.7091425657272339
0.2954642128938359,-0.6209244728088379
0.2954642128938359,-0.7415191531181335
0.2954642128938359,-0.5298991203308105
0.2954642128938359,-0.6518630385398865
0.2954642128938359,0.8927580118179321
0.2954642128938359,-0.7467180490493774
0.2954642128938359,-0.7436850070953369
0.2954642128938359,0.5170440077781677
0.29546421289383573,-0.6441493034362793
0.29546421289383573,0.6306813955307007
0.29546421289383573,0.6505928039550781
0.29546421289383573,-0.749113142490387
0.29546421289383573,0.6429126858711243
0.29546421289383573,-0.7524803876876831
0.29546421289383606,0.9497519135475159
0.29546421289383606,0.6862813234329224
0.29546421289383606,0.6615606546401978
0.29546421289383606,-0.590164303779602
0.29546421289383606,0.6477620601654053
0.29546421289383606,-0.630006730556488
0.29546421289383606,0.7245599031448364
0.29546421289383606,-0.5896851420402527
0.29546421289383606,0.5115616917610168
0.2983669725517973,-0.5062078833580017
0.2983669725517973,0.6422826051712036
0.2983669725517973,0.5297128558158875
0.2983669725517973,0.771961510181427
0.3012613305781618,0.676254153251648
0.3012613305781618,-0.8470996618270874
0.3012613305781618,-0.9068254828453064
0.3012613305781618,0.5912830829620361
0.3012613305781618,0.77183598279953
0.3012613305781618,0.5454811453819275
0.3012613305781618,-0.6906266808509827
0.3012613305781618,0.5084034204483032
0.3012613305781618,-0.8929708003997803
0.3012613305781618,-0.5674804449081421
0.3012613305781618,-0.6487560868263245
0.3012613305781618,-0.7976388335227966
0.3012613305781618,0.782953679561615
0.3012613305781618,0.824191689491272
0.3012613305781618,-0.6337411999702454
0.3012613305781618,0.9353898763656616
0.3012613305781618,-0.5905487537384033
0.3012613305781618,0.9740150570869446
0.3012613305781618,0.8844931125640869
0.3041473354672967,0.8169917464256287
0.3041473354672967,0.5553780794143677
0.3041473354672967,-0.775031328201294
0.3041473354672967,-0.7538933753967285
0.3070250352949117,-0.7872132062911987
0.3070250352949117,-0.8971171379089355
0.3031263948792546,-0.5863989591598511
0.3031263948792546,-0.6423375606536865
0.3031263948792546,0.5710767507553101
0.3031263948792546,-0.6698101162910461
0.3031263948792546,-0.9046369791030884
0.3031263948792546,-0.728103756904602
0.3031263948792546,-0.6026156544685364
0.3031263948792546,-0.5459101796150208
0.3031263948792546,-0.6179272532463074
0.3031263948792546,0.5853270292282104
0.3031263948792546,-0.5622518062591553
0.3031263948792546,-0.9205377101898193
0.3088570695882396,-0.8461492657661438
0.3088570695882396,0.6954529881477356
0.3088570695882396,-0.6024425029754639
0.31171013857064606,0.9668819904327393
0.31171013857064606,0.5888596177101135
0.31171013857064606,-0.5994382500648499
0.31171013857064606,-0.6585653424263
0.3145550907028771,0.9427077174186707
0.3145550907028771,-0.6972900629043579
0.3145550907028771,0.9337853193283081
0.3145550907028771,-0.7996752858161926
0.3145550907028771,-0.7084651589393616
0.3145550907028771,-0.5294743180274963
0.3145550907028771,0.991028368473053
0.3145550907028771,-0.5762379169464111
0.3145550907028771,-0.7029916048049927
0.3145550907028771,0.6442354917526245
0.3145550907028771,-0.6422228813171387
0.3145550907028773,-0.592654287815094
0.3145550907028773,0.6643118262290955
0.3145550907028773,0.773948073387146
0.3145550907028773,-0.8336167931556702
0.3135084720116795,0.9663188457489014
0.30963999523375896,-0.5067073106765747
0.30963999523375896,-0.7778385877609253
0.30963999523375896,0.6672305464744568
0.30963999523375896,-0.5357500314712524
0.30963999523375896,-0.8182100653648376
0.3096399952337591,-0.6067872643470764
0.3096399952337591,0.5752731561660767
0.3096399952337591,0.6826432943344116
0.3096399952337591,-0.6225560903549194
0.3096399952337591,-0.6955128312110901
0.3096399952337591,-0.5028954744338989
0.3096399952337591,-0.650526762008667
0.3096399952337591,-0.5176197290420532
0.3096399952337591,-0.8041868209838867
0.3096399952337591,-0.8822247982025146
0.3096399952337591,0.6564176678657532
0.3096399952337591,0.6944565176963806
0.3096399952337591,-0.7129488587379456
0.3096399952337591,-0.5950416326522827
0.3096399952337591,0.9776279330253601
0.3096399952337591,-0.865638017654419
0.30963999523375896,-0.913428544998169
0.3096399952337591,0.6182681918144226
0.3096399952337591,-0.7330980896949768
0.30963999523375896,-0.5861395597457886
0.30963999523375896,-0.5230535864830017
0.30963999523375896,-0.532940149307251
0.30963999523375896,-0.9291498064994812
0.30963999523375896,0.6176385283470154
0.30963999523375896,0.629504919052124
0.30963999523375896,0.7320491671562195
0.30963999523375896,-0.7918586134910583
0.30963999523375896,0.539629340171814
0.30578642591776906,-0.5724024176597595
0.30578642591776906,0.5037344694137573
0.30578642591776906,-0.6518725752830505
0.30578642591776906,0.779593288898468
0.30861528211824674,-0.6721293330192566
0.3047765058110811,0.955473005771637
0.29714288095601005,0.5598984956741333
0.2999637572976512,0.6141003370285034
0.2999637572976512,-0.8508011102676392
0.2999637572976512,0.5537058711051941
0.2999637572976512,0.6933929920196533
0.2999637572976512,-0.7407256364822388
0.2886214806937168,0.5505078434944153
0.2886214806937168,-0.8174523711204529
0.2886214806937168,-0.6536239385604858
0.2886214806937168,0.6180083751678467
0.2886214806937168,0.5553780794143677
0.29143442207033143,-0.6761513948440552
0.29143442207033143,-0.6231209635734558
0.29143442207033143,-0.6689306497573853
0.29143442207033143,-0.7442817687988281
0.29143442207033143,0.9704317450523376
0.29143442207033143,-0.6891177296638489
0.29143442207033143,0.6446676254272461
0.29143442207033143,-0.8003042340278625
0.29143442207033143,0.8202881813049316
0.29143442207033143,-0.6165062189102173
0.29143442207033143,-0.6227076649665833
0.29143442207033143,-0.640493631362915
0.29143442207033143,0.6576169729232788
0.29143442207033143,-0.6676742434501648
0.29143442207033143,-0.7676369547843933
0.29143442207033143,-0.8882018327713013
0.29143442207033143,-0.7288268208503723
0.29143442207033143,0.8048737049102783
0.29143442207033143,0.938082754611969
0.29143442207033143,-0.6855494976043701
0.29143442207033143,-0.6510629057884216
0.287682072451781,-0.6937283873558044
0.2904871233793895,-0.7120821475982666
0.2904871233793895,-0.5293211936950684
0.2867488012687825,0.5175703167915344
0.2867488012687825,0.5118644833564758
0.2867488012687825,0.5481706857681274
0.2867488012687825,0.7563014626502991
0.2923354079774221,0.7076581716537476
0.2923354079774221,0.8287733793258667
0.2923354079774221,0.5794139504432678
0.2951170509392989,-0.5797138810157776
0.2951170509392989,-0.6920230388641357
0.2951170509392989,-0.7434033751487732
0.2951170509392989,-0.7325522303581238
0.2951170509392989,0.5534678101539612
0.2951170509392989,0.5073684453964233
0.2951170509392989,0.5242302417755127
0.2951170509392989,0.5080968737602234
0.2951170509392989,0.5976709127426147
0.2978909778220244,-0.8084740042686462
0.3006572313149144,-0.5133004784584045
0.3006572313149144,0.9834907650947571
0.3006572313149144,-0.7776907086372375
0.3006572313149144,-0.882535994052887
0.3006572313149144,0.9799663424491882
0.3006572313149144,-0.6518725752830505
0.3006572313149144,-0.6042011976242065
0.3006572313149144,-0.5581098198890686
0.3006572313149144,0.5242302417755127
0.3006572313149144,-0.6007751822471619
0.3006572313149144,0.5262420773506165
0.3006572313149144,0.73311448097229
0.3006572313149144,-0.5720565319061279
0.3006572313149144,0.6519436836242676
0.3006572313149144,0.9761461019515991
0.29969145466301167,-0.5579079985618591
0.29969145466301167,0.5825380682945251
0.3024424880349015,0.9803128838539124
0.3024424880349015,-0.7277356386184692
0.3024424880349015,-0.6835559606552124
0.3024424880349015,-0.896487832069397
0.3024424880349015,0.5242302417755127
0.3024424880349015,0.587152361869812
0.3024424880349015,-0.6733502745628357
0.30518597398065245,0.8017182350158691
0.30792195379952725,0.50800621509552
0.30792195379952725,-0.7790538668632507
0.3106504684527312,0.9762168526649475
0.3106504684527312,-0.6007937788963318
0.3106504684527312,0.7627912759780884
0.3106504684527312,-0.7416873574256897
0.3106504684527312,-0.5573809146881104
0.3106504684527312,-0.810312032699585
0.3106504684527312,-0.5634058117866516
0.3106504684527312,-0.7712854146957397
0.3106504684527312,-0.6515407562255859
0.3106504684527312,-0.6684852242469788
0.3106504684527312,-0.8099728226661682
0.31065046845273103,0.6489621996879578
0.31065046845273137,-0.6242951154708862
0.31065046845273137,0.9902614951133728
0.31065046845273137,0.5977906584739685
0.31065046845273137,0.5070738792419434
0.31065046845273137,0.5953859686851501
0.31065046845273137,0.5944479703903198
0.31065046845273137,-0.76163250207901
0.31065046845273137,-0.7190394997596741
0.31065046845273137,-0.6677340269088745
0.31065046845273137,0.663573145866394
0.31065046845273137,-0.8772996068000793
0.31065046845273137,-0.8330457806587219
0.30693988905619546,-0.5054503083229065
0.30693988905619546,-0.5738862752914429
0.30693988905619546,-0.7323089838027954
0.30966097917055596,-0.5319665670394897
0.30966097917055596,0.554960310459137
0.3096609791705561,-0.828125
0.31237468504215227,0.5124549269676208
0.31237468504215227,-0.7772501707077026
0.31508104663989545,0.7450499534606934
0.3150810466398953,0.9668920040130615
0.31408324172773416,0.902938187122345
0.3140832417277345,-0.5548206567764282
0.3140832417277345,0.6959500312805176
0.3140832417277345,0.9797903299331665
0.3140832417277345,0.5945588946342468
0.3140832417277345,0.9899131059646606
0.3140832417277345,0.5793027281761169
0.3140832417277345,-0.7560303211212158
0.310399996311438,-0.722924530506134
0.31039999631143766,0.6686632037162781
0.31039999631143766,0.8227921724319458
0.31039999631143766,0.6124423146247864
0.31039999631143766,-0.7611901760101318
0.31039999631143766,-0.5513461828231812
0.31039999631143766,0.5061696767807007
0.31039999631143766,0.6863009333610535
0.31309178797714926,0.9629936814308167
0.31309178797714926,-0.5309078097343445
0.31309178797714926,-0.6290338635444641
0.31309178797714926,-0.8882018327713013
0.31309178797714926,-0.5610318779945374
0.31309178797714926,0.57681804895401
0.31309178797714926,0.6100548505783081
0.31309178797714926,-0.560633659362793
0.31309178797714926,-0.7402436137199402
0.31309178797714926,0.5169994235038757
0.31309178797714926,-0.6866118907928467
0.31309178797714926,-0.7615050077438354
0.3157763533478184,0.841288149356842
0.31845373111853476,0.5069583058357239
0.31845373111853476,0.93808913230896
0.31845373111853476,0.6935641765594482
0.31845373111853476,0.7214463949203491
0.3184537311185345,-0.8834384083747864
0.3184537311185345,0.7796502113342285
0.3211239596744135,0.6145892143249512
0.3211239596744135,-0.624148964881897
0.3211239596744135,0.9942322373390198
0.3211239596744135,0.5092185139656067
0.3211239596744135,0.5977904200553894
0.3211239596744135,-0.7655437588691711
0.3237870770938972,-0.5159012675285339
0.3237870770938972,-0.775031328201294
0.3237870770938972,0.8114239573478699
0.3237870770938972,0.941835880279541
0.3237870770938972,-0.8741756677627563
0.3237870770938972,-0.7554537057876587
0.3237870770938972,-0.6039980053901672
0.3237870770938972,0.5864707827568054
0.3237870770938972,-0.5249254703521729
0.3237870770938972,-0.5853533744812012
0.3201173482049346,-0.8789948225021362
0.32011734820493476,-0.5390257835388184
0.32011734820493476,-0.7819284200668335
0.32011734820493476,0.8981735706329346
0.32011734820493476,0.6487011313438416
0.32011734820493476,-0.8470996618270874
0.32011734820493476,-0.5103428363800049
0.32011734820493476,0.6708794832229614
0.32011734820493476,-0.7777121663093567
0.32011734820493476,0.9848631024360657
0.32011734820493476,-0.7986893057823181
0.32011734820493476,-0.7470478415489197
0.32011734820493476,-0.9039090871810913
0.32011734820493476,0.5553780794143677
0.32011734820493476,-0.8882018327713013
0.32011734820493476,-0.6618782877922058
0.32011734820493476,0.6757370233535767
0.32011734820493476,-0.775031328201294
0.31281804572332333,0.6183040738105774
0.31281804572332333,-0.6391772031784058
0.31281804572332333,0.6916398406028748
0.3154740897814396,0.506289541721344
0.31812309795301635,0.9596930742263794
0.31812309795301635,-0.8834384083747864
0.31812309795301635,0.5816342234611511
0.31812309795301635,0.8067924380302429
0.31812309795301635,-0.6771981716156006
0.31812309795301635,-0.7458168268203735
0.31812309795301635,0.550110399723053
0.31812309795301635,0.77183598279953
0.31812309795301635,-0.5563951134681702
0.31812309795301635,0.9884206056594849
0.31812309795301635,0.9717474579811096
0.31812309795301635,-0.6872779130935669
0.31812309795301635,0.9940915703773499
0.31812309795301635,0.5242302417755127
0.31812309795301635,0.5973415374755859
0.31812309795301635,0.9493120312690735
0.31812309795301635,0.7943472266197205
0.31812309795301635,-0.82173091173172
0.31812309795301635,-0.5795907974243164
0.31812309795301635,-0.5099467635154724
0.31812309795301635,-0.8044523000717163
0.31812309795301635,-0.5222718715667725
0.31812309795301635,0.7998103499412537
0.31812309795301635,-0.7465761303901672
0.3108766894322492,-0.8461492657661438
0.3108766894322492,0.5119585990905762
0.3108766894322492,-0.7380825877189636
0.3108766894322492,-0.5186426043510437
0.3108766894322492,-0.8324074149131775
0.3108766894322492,-0.535768985748291
0.3108766894322492,-0.7834365963935852
0.3108766894322492,-0.7801973223686218
0.31351869889508777,0.665788471698761
0.31351869889508777,-0.6215755343437195
0.31351869889508777,0.9242861866950989
0.31351869889508777,0.9950048327445984
0.31351869889508777,-0.603596568107605
0.3161537465330931,0.596172034740448
0.3125501390297945,-0.745791494846344
0.3125501390297945,0.8463574051856995
0.3151782614360638,0.819715142250061
0.3151782614360638,-0.6925088763237
0.3151782614360638,-0.8839030861854553
0.3151782614360638,-0.5192070603370667
0.3151782614360638,-0.6579822897911072
0.3151782614360638,0.58917236328125
0.31779949491593806,-0.5179550051689148
0.31779949491593806,0.6044995784759521
0.31779949491593806,0.6267898678779602
0.31779949491593806,-0.760327160358429
0.31779949491593806,-0.5801410675048828
0.31420882678520945,-0.8520330786705017
0.31943077076636117,0.9873928427696228
0.3158529494184771,-0.7349880337715149
0.3158529494184771,-0.6546705365180969
0.3158529494184771,-0.6431506872177124
0.3158529494184771,0.9661979675292969
0.3158529494184771,-0.5397704243659973
0.3158529494184771,0.5242302417755127
0.3158529494184771,-0.8669512271881104
0.3158529494184771,-0.8816789984703064
0.31845373111853476,-0.8207898736000061
0.31845373111853476,-0.5324335098266602
0.31845373111853476,-0.530996561050415
0.31845373111853476,0.8980823159217834
0.31845373111853476,-0.7448813319206238
0.31845373111853476,-0.7265958189964294
0.31845373111853476,-0.6777196526527405
0.31845373111853476,-0.5545942783355713
0.31845373111853476,0.7441301941871643
0.31845373111853476,0.5444138646125793
0.32104776629558124,-0.5970633029937744
0.32104776629558124,0.5685998201370239
0.32104776629558124,-0.6888362169265747
0.32104776629558124,-0.6230087280273438
0.32363508986053235,-0.6169971227645874
0.32363508986053235,0.6695693135261536
0.32363508986053235,-0.8653377294540405
0.32363508986053235,-0.8470996618270874
0.32363508986053235,0.630285918712616
0.32363508986053235,-0.7288393378257751
0.32363508986053235,0.691544771194458
0.32363508986053235,0.5269761681556702
0.32363508986053235,-0.5540785193443298
0.32363508986053235,-0.585426926612854
0.32363508986053235,-0.8236357569694519
0.32363508986053235,-0.7163949012756348
0.32363508986053235,-0.5495555996894836
0.32363508986053235,0.5023521780967712
0.32363508986053235,0.8953211903572083
0.32363508986053235,-0.5978331565856934
0.3262157364540238,0.7272424101829529
0.3262157364540238,-0.8672225475311279
0.3262157364540238,0.5346226096153259
0.3262157364540238,-0.5497117638587952
0.3262157364540238,0.5200387835502625
0.3287897404491968,0.5332415103912354
0.3287897404491968,0.8137515783309937
0.3287897404491968,-0.8842365741729736
0.3287897404491965,0.6232634782791138
0.3287897404491965,0.683309018611908
0.3287897404491965,0.5022969841957092
0.3287897404491968,-0.5252720713615417
0.3287897404491968,-0.7680001258850098
0.3287897404491968,0.7625065445899963
0.33135713595444244,0.5708733797073364
0.33391795681611613,0.9688406586647034
0.33391795681611625,0.8670758008956909
0.336472236621213,-0.6435102820396423
0.336472236621213,-0.6452354788780212
0.336472236621213,0.650982141494751
0.336472236621213,0.6106354594230652
0.336472236621213,0.6465267539024353
0.336472236621213,-0.6053465604782104
0.336472236621213,0.9536401629447937
0.336472236621213,0.907466471195221
0.336472236621213,-0.5228158831596375
0.3390200087000117,0.771597146987915
0.3390200087000117,-0.5860616564750671
0.3390200087000117,0.9015288949012756
0.3390200087000117,-0.5089043378829956
0.3390200087000117,0.7683780193328857
0.3390200087000117,-0.7932040691375732
0.3390200087000117,0.8038820624351501
0.3390200087000117,-0.7857373356819153
0.3390200087000117,0.5520849823951721
0.3390200087000117,0.738446831703186
0.3390200087000117,0.5242302417755127
0.3390200087000117,0.663110613822937
0.3390200087000117,0.7321485280990601
0.3390200087000117,0.5242302417755127
0.3390200087000117,0.6719949245452881
0.3390200087000117,0.690958559513092
0.3390200087000117,0.978281557559967
0.3390200087000117,0.8889870643615723
0.3390200087000117,-0.6444346308708191
0.3390200087000117,-0.5787071585655212
0.3390200087000117,0.5040271878242493
0.3390200087000117,0.6201407313346863
0.3390200087000117,-0.7135873436927795
0.3390200087000117,0.5682515501976013
0.3390200087000117,-0.5626308917999268
0.3390200087000117,0.6820103526115417
0.3390200087000117,-0.6854068636894226
0.3415613061286843,-0.6729233860969543
0.3415613061286843,-0.5826940536499023
0.3415613061286843,0.6832965016365051
0.3415613061286843,-0.691989004611969
0.3440961617318722,-0.6182661652565002
0.3440961617318722,0.5553780794143677
0.34662460808523116,0.9901397824287415
0.34662460808523116,0.99069744348526
0.34662460808523116,0.9425349235534668
0.34662460808523116,-0.740708589553833
0.34662460808523116,-0.8732598423957825
0.34662460808523116,-0.7460933327674866
0.34305954192073473,-0.5627352595329285
0.34305954192073473,-0.5461055636405945
0.3395071403163668,0.7670947909355164
0.3395071403163668,0.5553780794143677
0.3395071403163668,-0.6247426271438599
0.3395071403163668,-0.5047677755355835
0.3324399730932746,-0.621534526348114
0.3324399730932746,-0.5515573620796204
0.3289250309858301,-0.521726667881012
0.3289250309858301,0.9842560887336731
0.3289250309858301,-0.6030753254890442
0.3289250309858301,0.8416764736175537
0.3289250309858301,-0.7049782276153564
0.3289250309858301,-0.5724774599075317
0.3289250309858301,0.9127774238586426
0.3289250309858301,-0.8999372124671936
0.3289250309858301,-0.7908170819282532
0.33144710041853964,0.8900865316390991
0.33144710041853964,-0.6987161040306091
0.33144710041853964,0.5106372237205505
0.33144710041853964,-0.6514677405357361
0.33144710041853964,0.811883270740509
0.33144710041853964,-0.5253186225891113
0.33144710041853964,0.717522144317627
0.33144710041853964,-0.5302479267120361
0.33144710041853964,0.9102557897567749
0.3339628250157873,-0.9130036234855652
0.3339628250157873,-0.590594470500946
0.3339628250157873,0.5179703831672668
0.3364722366212129,0.6775680780410767
0.3364722366212129,-0.5535183548927307
0.3364722366212129,0.5903638601303101
0.3364722366212129,-0.5060144662857056
0.3364722366212129,-0.712012529373169
0.3364722366212129,-0.652520477771759
0.3364722366212129,-0.731404185295105
0.3364722366212129,-0.8575255274772644
0.336472236621213,-0.5968292951583862
0.336472236621213,0.7038155794143677
0.336472236621213,0.6786425113677979
0.336472236621213,0.589986264705658
0.336472236621213,0.5474359393119812
0.3329696060700108,-0.8585368394851685
0.3329696060700108,0.544489324092865
0.3329696060700108,0.6131066083908081
0.3329696060700108,-0.7706153988838196
0.3329696060700108,0.8709529638290405
0.33296960607001097,0.5881907343864441
0.33296960607001097,-0.7913403511047363
0.33296960607001097,0.6979237198829651
0.33296960607001097,0.9891719222068787
0.32947920113024226,-0.59222012758255
0.32947920113024226,0.5699474215507507
0.32947920113024226,-0.8960168957710266
0.32947920113024226,0.9866705536842346
0.32947920113024226,0.989264965057373
0.32947920113024226,0.5613798499107361
0.32947920113024226,-0.7116490006446838
0.32947920113024226,-0.6070303916931152
0.32947920113024226,-0.799091100692749
0.32947920113024226,0.5293103456497192
0.32947920113024226,0.5816465020179749
0.32947920113024226,0.7056044340133667
0.32947920113024226,0.9740059971809387
0.334479211546948,0.6963201761245728
0.34193266220152896,-0.7601717710494995
0.34193266220152896,-0.5355160236358643
0.34193266220152896,-0.5594115257263184
0.3419326622015288,-0.5168378353118896
0.3419326622015288,0.6095841526985168
0.3419326622015288,-0.7828782200813293
0.3419326622015288,-0.578523576259613
0.3419326622015288,0.524181604385376
0.3419326622015288,-0.6592209935188293
0.3419326622015288,-0.5150520205497742
0.344404851346918,0.9639726877212524
0.344404851346918,0.7429560422897339
0.3409265869705932,0.659496009349823
0.3409265869705932,0.8210368156433105
0.3409265869705932,-0.7297153472900391
0.3409265869705932,-0.7121692895889282
0.3409265869705932,0.6727529764175415
0.3374603789941071,-0.6529788970947266
0.3374603789941071,-0.6030751466751099
0.3340061441260194,0.606592059135437
0.3340061441260194,0.9935634136199951
0.3340061441260194,-0.5127311944961548
0.3340061441260194,-0.6034343838691711
0.32713326483825733,0.5862278938293457
0.32713326483825733,-0.5172644257545471
0.32713326483825733,-0.6159509420394897
0.32713326483825733,0.5406612753868103
0.32713326483825733,-0.5954710841178894
0.32713326483825733,0.7254694104194641
0.3295993573334509,0.9861460328102112
0.322773392263051,-0.6197018027305603
0.322773392263051,0.5553497672080994
0.322773392263051,0.8694905042648315
0.322773392263051,0.9287413358688354
0.31937780326191284,-0.6878529787063599
0.31937780326191284,-0.7780776023864746
0.31937780326191284,-0.676215410232544
0.3159937052776722,-0.6051047444343567
0.3159937052776722,-0.5854386687278748
0.3159937052776722,0.6288653016090393
0.31845373111853476,0.5994644165039062
0.31845373111853476,0.9637616276741028
0.31845373111853476,-0.5987315773963928
0.31845373111853476,0.6136929392814636
0.32090772008010127,-0.7741910815238953
0.32090772008010127,0.5993239879608154
0.3257977053742931,0.668502151966095
0.3257977053742931,-0.6288091540336609
0.3257977053742931,-0.7171525359153748
0.3282337601721743,0.9297763705253601
0.3282337601721743,-0.7039329409599304
0.32149972799083026,0.5037218928337097
0.3214997279908301,0.9902656674385071
0.3214997279908301,0.971908450126648
0.3214997279908301,-0.6404014229774475
0.3214997279908301,-0.6046476364135742
0.3214997279908301,-0.6560544371604919
0.3214997279908301,-0.5386177897453308
0.3239298628441221,0.9435722231864929
0.32392986284412195,-0.58144611120224
0.32057977595883996,0.7995351552963257
0.32057977595883996,-0.5429210066795349
0.32057977595883996,0.5086117386817932
0.31724087469332546,-0.5322626829147339
0.3172408746933253,0.9666187167167664
0.3172408746933253,0.9948500990867615
0.3172408746933253,-0.5881657600402832
0.3172408746933253,0.9885278940200806
0.3172408746933253,0.5082841515541077
0.3139130846006507,0.9345279335975647
0.3139130846006507,0.6590420007705688
0.3139130846006507,-0.6334115862846375
0.3139130846006507,0.7175341844558716
0.3139130846006507,0.5310867428779602
0.3139130846006507,-0.6109148263931274
0.3139130846006507,0.6420765519142151
0.3139130846006507,-0.6626780033111572
0.3139130846006507,0.9728269577026367
0.30729054384015725,0.9813554883003235
0.3097147874516636,0.8436583280563354
0.3097147874516636,-0.8648800849914551
0.3097147874516636,-0.6981779336929321
0.3097147874516636,0.5991480946540833
0.3097147874516636,-0.5881657600402832
0.3097147874516636,0.510418713092804
0.3097147874516636,0.9793144464492798
0.3097147874516636,0.5627771615982056
0.3121331683159452,-0.7208607196807861
0.3121331683159452,-0.6454029679298401
0.3121331683159452,-0.5896018147468567
0.3121331683159452,0.8740525245666504
0.3088382724190929,-0.5551373362541199
0.3088382724190929,0.5766478180885315
0.3088382724190929,-0.639119565486908
0.3088382724190929,-0.5445024967193604
0.3088382724190929,0.7333607077598572
0.30883827241909256,0.7327894568443298
0.30883827241909256,0.9534831047058105
0.30883827241909256,-0.5881657600402832
0.3112508188244766,-0.5844160914421082
0.3112508188244766,0.8345546722412109
0.3112508188244766,0.5214784145355225
0.3112508188244766,-0.6042290925979614
0.30796674362328663,-0.5285985469818115
0.30796674362328663,0.7109939455986023
0.30796674362328663,0.541293740272522
0.30796674362328663,-0.6183316707611084
0.30796674362328663,-0.6209290027618408
0.30796674362328663,0.9666962027549744
0.30796674362328663,-0.7731277942657471
0.30796674362328663,-0.7265200018882751
0.30796674362328663,-0.5232565402984619
0.30796674362328663,-0.8001567125320435
0.30796674362328663,-0.7545329928398132
0.30796674362328663,0.9501367211341858
0.30796674362328663,0.509708046913147
0.30796674362328663,0.5062630772590637
0.30796674362328663,-0.8078771233558655
0.3151696559173446,-0.9169721603393555
0.3151696559173446,-0.5712183713912964
0.3151696559173446,-0.5881657600402832
0.3151696559173446,-0.7220320105552673
0.3151696559173446,-0.6770960688591003
0.3151696559173446,0.572422444820404
0.3151696559173446,-0.8203756213188171
0.3151696559173446,-0.5682300329208374
0.3151696559173446,-0.6066022515296936
0.3151696559173446,-0.6016891598701477
0.3151696559173446,0.525938868522644
0.3118963305723756,-0.6109230518341064
0.3118963305723756,-0.7477203607559204
0.3118963305723756,-0.5354087352752686
0.3118963305723756,0.7228276133537292
0.3118963305723756,0.9805446863174438
0.3118963305723756,0.5146884322166443
0.3118963305723756,-0.5244327187538147
0.3086336849375591,-0.6541239023208618
0.3086336849375591,-0.5908311605453491
0.3086336849375591,-0.8110937476158142
0.3086336849375591,-0.6256314516067505
0.3086336849375591,0.9755645990371704
0.3086336849375591,0.6475990414619446
0.3086336849375591,-0.8139530420303345
0.3086336849375591,-0.5358377695083618
0.3086336849375591,0.7173436880111694
0.3086336849375591,-0.5589913725852966
0.3086336849375591,0.5412940382957458
0.3021401556270108,-0.5714983344078064
0.3021401556270108,0.9387654662132263
0.3021401556270108,-0.8275066018104553
0.3021401556270108,0.9103982448577881
0.3021401556270108,-0.589683473110199
0.2989091350455644,0.6717021465301514
0.2989091350455644,-0.5881657600402832
0.2989091350455644,-0.71852707862854
0.2989091350455644,0.8044171333312988
0.2989091350455644,0.5436894297599792
0.2989091350455644,0.9387654662132263
0.2956885203455221,0.581449031829834
0.2956885203455221,0.7527075409889221
0.2956885203455221,-0.5756239891052246
0.2956885203455221,0.8542231321334839
0.2956885203455221,-0.704605221748352
0.2956885203455221,0.9387654662132263
0.2956885203455221,-0.5233091115951538
0.2956885203455221,-0.5720349550247192
0.2956885203455221,0.9320813417434692
0.2892782419846031,-0.7128425240516663
0.29166772938198465,0.9795926213264465
0.29166772938198465,-0.6185933947563171
0.29166772938198465,0.5991480946540833
0.29166772938198465,0.6866833567619324
0.29166772938198465,0.9210001230239868
0.2916677293819845,0.6071993112564087
0.2916677293819845,0.7277413606643677
0.2916677293819845,-0.6968516111373901
0.2916677293819845,0.9942930936813354
0.2916677293819845,-0.6301282644271851
0.2916677293819845,0.9119904041290283
0.2916677293819845,-0.5899519324302673
0.2916677293819845,-0.5795313119888306
0.2916677293819845,0.5423447489738464
0.2916677293819845,-0.8418647646903992
0.2916677293819845,-0.8001567125320435
0.2884779340138844,-0.8023208379745483
0.2884779340138844,-0.5494568943977356
0.2884779340138844,-0.7484279274940491
0.2884779340138844,0.9799867272377014
0.2884779340138844,0.6738404631614685
0.2884779340138844,0.9358863830566406
0.2884779340138844,0.5293103456497192
0.2884779340138844,0.8478472828865051
0.2884779340138844,0.9530860781669617
0.2884779340138844,-0.7187021374702454
0.29086172536916055,0.9476503133773804
0.29086172536916055,-0.8384032249450684
0.29086172536916055,-0.6047989726066589
0.29086172536916055,-0.5603969097137451
0.28768207245178085,0.7624411582946777
0.28768207245178085,-0.6508484482765198
0.28768207245178085,0.7677543759346008
0.28768207245178085,0.9796810150146484
0.28768207245178085,0.966273307800293
0.28768207245178085,0.9764859676361084
0.28768207245178085,0.7274355888366699
0.28768207245178085,0.5283790826797485
0.28768207245178085,0.9660801291465759
0.28768207245178085,-0.5481979250907898
0.28768207245178085,0.7837634086608887
0.28768207245178085,-0.5711557269096375
0.28768207245178085,-0.8001567125320435
0.28135293740013334,0.655951976776123
0.28135293740013334,-0.7155166268348694
0.28135293740013334,-0.7774949669837952
0.28135293740013334,-0.691107451915741
0.28135293740013334,0.5795003175735474
0.28135293740013334,-0.722890317440033
0.2782033284972371,-0.668499231338501
0.2782033284972371,-0.6212831735610962
0.2782033284972371,-0.5666359066963196
0.2782033284972371,-0.5692660212516785
0.2829539312558349,-0.5661534667015076
0.2829539312558349,0.7340608835220337
0.2829539312558349,0.8931354880332947
0.2829539312558349,0.8345303535461426
0.2829539312558349,-0.6209594011306763
0.2829539312558349,0.5918435454368591
0.2829539312558349,-0.6292340755462646
0.2829539312558349,-0.5688021779060364
0.2829539312558349,0.989334762096405
0.2798142112511674,0.5262250304222107
0.2798142112511674,-0.9473533034324646
0.2798142112511674,0.992277979850769
0.2798142112511674,-0.6212831735610962
0.2798142112511674,0.640200674533844
0.2798142112511674,-0.8701375722885132
0.28218107626143335,0.9613959193229675
0.28218107626143335,0.6019896864891052
0.27905118325250583,-0.6872069835662842
0.2814124594381853,0.9583829641342163
0.2814124594381855,-0.7971601486206055
0.2814124594381855,0.6749680042266846
0.2814124594381855,-0.612169623374939
0.2814124594381855,0.637708306312561
0.2814124594381855,0.6295862197875977
0.2814124594381855,0.5940318703651428
0.2814124594381855,0.579777181148529
0.2814124594381855,0.5795003175735474
0.2814124594381855,-0.722890317440033
0.2814124594381855,-0.5658539533615112
0.2814124594381855,-0.6212831735610962
0.2814124594381855,-0.5666359066963196
0.2814124594381855,-0.5692660212516785
0.2814124594381855,0.7340608835220337
0.2814124594381855,0.8931354880332947
0.2814124594381855,0.8345303535461426
0.2814124594381855,-0.6209594011306763
0.2814124594381855,0.5918435454368591
0.2814124594381855,-0.5688021779060364
0.28141245943818566,0.989334762096405
0.2814124594381853,0.9016780853271484
0.2814124594381853,-0.5626438856124878
0.2814124594381853,-0.9473533034324646
0.2814124594381853,0.992277979850769
0.2814124594381853,-0.6212831735610962
0.2814124594381853,0.640200674533844
0.2814124594381853,0.5817245244979858
0.2837681731306448,0.9613959193229675
0.2837681731306448,0.6019896864891052
0.28064804579440117,-0.6872069835662842
0.2829982231393547,0.9583829641342163
0.2829982231393547,0.8690507411956787
0.2829982231393547,0.6749680042266846
0.2829982231393547,0.5918435454368591
0.2829982231393547,-0.612169623374939
0.2829982231393547,0.9005156755447388
0.2829982231393547,0.9843999147415161
0.2829982231393547,0.5817245244979858
0.2829982231393547,0.6295862197875977
0.2853428900986085,0.652706503868103
0.2853428900986085,0.849612832069397
0.2853428900986087,-0.5273399353027344
0.2853428900986087,0.908687949180603
0.2853428900986087,-0.7582989931106567
0.2853428900986087,-0.60174560546875
0.2853428900986087,-0.7436926960945129
0.2853428900986087,0.611112654209137
0.2853428900986087,0.6647384166717529
0.2853428900986087,0.988319993019104
0.2853428900986087,0.9824574589729309
0.2853428900986087,-0.5209211707115173
0.2853428900986087,-0.7661920189857483
0.2853428900986087,-0.6266143321990967
0.2853428900986087,0.7149900794029236
0.2853428900986087,-0.5556519031524658
0.287682072451781,0.9173321723937988
0.287682072451781,0.550792932510376
0.287682072451781,0.8756290078163147
0.287682072451781,0.648951530456543
0.28768207245178085,-0.7959809899330139
0.28768207245178085,-0.8710235953330994
0.287682072451781,0.582241415977478
0.287682072451781,-0.5499056577682495
0.287682072451781,0.5635977983474731
0.287682072451781,-0.6044524312019348
0.287682072451781,0.6426112651824951
0.287682072451781,0.98638516664505
0.287682072451781,0.9758949875831604
0.287682072451781,-0.5412880778312683
0.287682072451781,-0.6583431959152222
0.287682072451781,0.7862600088119507
0.287682072451781,0.974915087223053
0.29001579579800113,0.7741726636886597
0.29001579579800113,-0.722890317440033
0.29001579579800113,0.9253278970718384
0.29001579579800113,0.6069689989089966
0.29001579579800113,-0.5690160989761353
0.29001579579800113,0.859896719455719
0.29001579579800113,-0.5148500204086304
0.29001579579800113,-0.6711307764053345
0.29001579579800113,-0.722890317440033
0.29001579579800113,0.5155447721481323
0.29001579579800113,0.5612155795097351
0.29001579579800113,0.7767114639282227
0.29001579579800113,-0.6996110677719116
0.29001579579800113,0.6100292801856995
0.29001579579800113,0.7294266223907471
0.29001579579800113,0.7250175476074219
0.29001579579800113,-0.6584912538528442
0.29001579579800113,0.5817245244979858
0.29001579579800113,-0.5796552300453186
0.29001579579800113,-0.8218277096748352
0.29234408555759217,-0.524129331111908
0.29234408555759217,0.5654096007347107
0.29234408555759217,0.723412811756134
0.29234408555759217,0.9879249334335327
0.29234408555759217,0.8196543455123901
0.29234408555759217,0.8748718500137329
0.29234408555759217,-0.5658539533615112
0.29234408555759217,0.5621944069862366
0.29234408555759217,-0.5658539533615112
0.2861328854649516,0.6737974286079407
0.2861328854649516,-0.718848466873169
0.2861328854649516,-0.6470533609390259
0.2861328854649516,0.5295861959457397
0.2861328854649516,-0.7678329944610596
0.2861328854649516,0.5709896087646484
0.2861328854649516,-0.5675705671310425
0.2861328854649516,-0.722890317440033
0.2861328854649516,0.9445917010307312
0.2861328854649516,0.5653824806213379
0.2861328854649516,-0.751162588596344
0.2861328854649516,-0.5479006171226501
0.2861328854649516,-0.8872233629226685
0.2861328854649516,-0.6662660837173462
0.2861328854649516,0.9913251399993896
0.2884557668810913,-0.775921106338501
0.29308540477983325,0.7364014983177185
0.29308540477983325,0.986497700214386
0.29308540477983325,0.5524844527244568
0.29308540477983325,-0.783107340335846
0.29308540477983325,-0.6826474666595459
0.29308540477983325,-0.722890317440033
0.29308540477983325,0.6444516777992249
0.29308540477983325,0.9651983380317688
0.2899942122101604,-0.7522248029708862
0.2899942122101604,0.5305161476135254
0.2899942122101604,0.9894999861717224
0.2899942122101604,-0.5134923458099365
0.2899942122101604,-0.6105091571807861
0.2899942122101604,-0.558194637298584
0.2899942122101604,0.9420310258865356
0.2899942122101604,0.9657310247421265
0.2899942122101604,-0.8025242686271667
0.2899942122101604,0.5635977983474731
0.2899942122101604,0.8317346572875977
0.2899942122101604,-0.6454759240150452
0.2899942122101604,-0.6665536165237427
0.2899942122101604,-0.722890317440033
0.2899942122101604,-0.5658539533615112
0.2899942122101604,-0.5257930755615234
0.2899942122101604,-0.565522313117981
0.2899942122101604,-0.7734723687171936
0.2899942122101604,-0.548202633857727
0.2899942122101604,0.787933349609375
0.28691254567275243,0.8764095902442932
0.2892193517706672,-0.6730155944824219
0.2892193517706672,-0.722890317440033
0.2892193517706672,0.7413340210914612
0.2892193517706674,0.6333295106887817
0.2892193517706674,-0.7876075506210327
0.2892193517706674,0.9378756284713745
0.2892193517706674,-0.7099970579147339
0.2892193517706674,0.8702723383903503
0.2892193517706674,0.5098958611488342
0.2892193517706674,0.6421557068824768
0.2892193517706674,-0.7411565780639648
0.2892193517706674,0.7195627689361572
0.2892193517706674,-0.7567476034164429
0.2892193517706674,-0.6588231325149536
0.2892193517706674,-0.6928885579109192
0.2892193517706674,0.9892746806144714
0.2892193517706674,-0.5298758149147034
0.2892193517706674,-0.5175780653953552
0.2892193517706674,0.5817245244979858
0.2892193517706674,-0.5194108486175537
0.2892193517706674,0.8143749833106995
0.2915208487589467,-0.514768660068512
0.2915208487589467,0.5476158857345581
0.2915208487589467,0.9609416127204895
0.2915208487589467,-0.567205011844635
0.29381706101929667,0.9715051651000977
0.29381706101929667,0.6127646565437317
0.29381706101929667,-0.7264690399169922
0.29381706101929667,-0.9115248322486877
0.29381706101929667,-0.7645391821861267
0.29381706101929667,-0.8741965889930725
0.29381706101929667,0.8840371966362
0.29381706101929667,0.958426296710968
0.29381706101929667,0.9943321943283081
0.29381706101929667,-0.510604739189148
0.29381706101929667,-0.5690160989761353
0.29381706101929667,0.6609139442443848
0.29381706101929667,0.9889400601387024
0.29381706101929667,0.6941582560539246
0.29381706101929667,0.8291506767272949
0.29381706101929683,-0.5318479537963867
0.29381706101929683,0.5649697780609131
0.29381706101929683,0.5834231376647949
0.29381706101929683,0.6270201206207275
0.2961080127658528,-0.5644762516021729
0.2961080127658528,-0.6309463977813721
0.2961080127658528,0.6528249979019165
0.2930358137288824,0.6234481930732727
0.2930358137288824,-0.5101715326309204
0.2930358137288824,0.5239736437797546
0.2930358137288824,-0.8070273399353027
0.2930358137288824,-0.732291579246521
0.2930358137288824,0.5449647903442383
0.2930358137288824,-0.5236912965774536
0.2930358137288824,-0.545859158039093
0.2930358137288824,0.6150463819503784
0.2930358137288824,0.5795003175735474
0.2930358137288824,0.6170626282691956
0.2930358137288824,-0.5789054036140442
0.2930358137288824,-0.5254542827606201
0.2953215290097385,-0.5930216908454895
0.2953215290097385,0.5871816873550415
0.2953215290097385,-0.7021369338035583
0.2953215290097385,0.9877932667732239
0.2953215290097385,-0.5194600820541382
0.29225873947919256,0.5629990100860596
0.29225873947919256,0.5795003175735474
0.29225873947919256,-0.6407299637794495
0.29225873947919256,0.5013545751571655
0.29225873947919256,0.6827101111412048
0.29225873947919256,0.6299309134483337
0.29453924217791805,0.7446891069412231
0.29453924217791805,-0.6275864839553833
0.29453924217791805,0.9721163511276245
0.29453924217791805,-0.7140861749649048
0.29453924217791805,-0.8595332503318787
0.29453924217791805,-0.517406165599823
0.29453924217791805,-0.7078232169151306
0.29453924217791805,-0.5056711435317993
0.29453924217791805,0.5880221128463745
0.2884416623097995,0.9030554890632629
0.2884416623097995,0.7139498591423035
0.2884416623097995,0.6136607527732849
0.2854067586146456,0.6853455901145935
0.2854067586146456,0.8057699799537659
0.2854067586146456,-0.6691264510154724
0.2854067586146456,-0.722890317440033
0.2854067586146456,0.6084163188934326
0.2854067586146456,0.6253411769866943
0.2854067586146456,-0.6987320780754089
0.2854067586146456,0.6791256666183472
0.2854067586146456,0.5251613855361938
0.2854067586146456,0.972287654876709
0.28768207245178085,0.5847135186195374
0.28768207245178085,0.9778557419776917
0.28768207245178085,-0.5721041560173035
0.28768207245178085,-0.7040574550628662
0.28768207245178085,-0.7644025683403015
0.28768207245178085,0.5635977983474731
0.2899522209863201,0.6774275302886963
0.2899522209863201,0.5733788013458252
0.2899522209863201,0.8720329403877258
0.2899522209863201,0.6115937829017639
0.2899522209863201,0.6331607699394226
0.29221722761717217,-0.6769792437553406
0.29221722761717217,0.892101526260376
0.28919150670063504,0.7353239059448242
0.2891915067006352,-0.6466880440711975
0.2891915067006352,-0.5655167698860168
0.2891915067006352,-0.7835556864738464
0.2891915067006352,0.9899548292160034
0.2891915067006352,0.9849910140037537
0.2861749131612097,0.6543976068496704
0.2861749131612097,-0.5925360321998596
0.2861749131612097,-0.8474042415618896
0.2861749131612097,-0.7082226276397705
0.2861749131612097,0.771737813949585
0.2861749131612097,0.6396886110305786
0.2861749131612097,-0.5982320308685303
0.2861749131612097,0.9549540877342224
0.2861749131612097,-0.6623477339744568
0.2861749131612097,-0.525861918926239
0.2861749131612097,0.6852833032608032
0.2861749131612097,-0.698650598526001
0.2861749131612097,0.6621182560920715
0.2861749131612097,0.7781614661216736
0.2861749131612097,-0.5867468118667603
0.2861749131612097,0.656796932220459
0.2861749131612097,-0.7021369338035583
0.2861749131612097,0.6224793195724487
0.2861749131612097,0.9902034997940063
0.2861749131612097,0.6844537258148193
0.2861749131612097,-0.7179099321365356
0.2861749131612097,0.9569991827011108
0.2861749131612097,-0.5090627670288086
0.2861749131612097,0.547835648059845
0.2861749131612097,0.562173068523407
0.2861749131612097,-0.8663318157196045
0.2861749131612097,0.7847825288772583
0.2861749131612097,-0.574169933795929
0.2861749131612097,0.5608439445495605
0.2861749131612097,-0.6636655926704407
0.2861749131612097,0.9832997918128967
0.2861749131612095,0.5620721578598022
0.2861749131612095,0.7086967825889587
0.2861749131612097,0.9641285538673401
0.2861749131612097,-0.7159850001335144
0.2861749131612097,0.954887866973877
0.2861749131612097,0.7998926639556885
0.2861749131612097,-0.7240644097328186
0.2861749131612097,-0.7241314649581909
0.2861749131612095,-0.7215957045555115
0.2861749131612095,-0.7582989931106567
0.2861749131612095,-0.8564969301223755
0.2861749131612095,0.8245477080345154
0.2861749131612095,0.9801145195960999
0.2861749131612095,0.5081283450126648
0.28843480112864706,0.5061001181602478
0.28843480112864706,-0.7138494849205017
0.28843480112864706,0.5176201462745667
0.28843480112864706,-0.5681375861167908
0.28768207245178085,0.9807434678077698
0.28768207245178085,0.5872821807861328
0.28768207245178085,-0.6949572563171387
0.28768207245178085,0.5940318703651428
0.28768207245178085,0.9761484861373901
0.28768207245178085,0.5639373660087585
0.28768207245178085,0.6104193329811096
0.28768207245178085,-0.5706934928894043
0.28768207245178085,-0.7136231660842896
0.28768207245178085,0.9011844396591187
0.2899317921857962,0.5902302861213684
0.2899317921857962,-0.5205188393592834